"","Dim.1","Dim.2","Dim.3","Dim.4","Dim.5","Dim.6","Dim.7","Dim.8","Dim.9","Dim.10","Dim.11","Dim.12","Dim.13","Dim.14","Dim.15","Dim.16","Dim.17","Dim.18","Dim.19","Dim.20","Dim.21","Dim.22","Dim.23","Dim.24","Dim.25","Dim.26","Dim.27","Dim.28","Dim.29","Dim.30","Dim.31","Dim.32","Dim.33","Dim.34","Dim.35","Dim.36","Dim.37","Dim.38","Dim.39","Dim.40","Dim.41","Dim.42","Dim.43","Dim.44","Dim.45","Dim.46","Dim.47","Dim.48","Dim.49","Dim.50"
"ntellsSinceElicit",-0.532067527155821,0.72313367447427,-0.0290648158933647,0.0354460273237195,0.0590571395820111,0.0415624884281139,0.134596305054625,0.124500592857586,0.199458549241732,0.112322127721426,0.130578631393672,-0.0638699467161632,-0.0778642760249938,-0.114882452423731,0.0837336604020347,0.0160767803354665,0.0776734042365715,0.0213833212875872,0.101262335803588,-0.0179742091645624,-0.0502218327400825,0.000944180870600677,0.0324900309702106,0.0200651088854617,-0.0259685828559384,0.0147302234341309,0.000233591760373148,-0.00256191475674987,-0.0100544191536806,-0.00915036659592259,0.0302764823442088,-0.00119623457204375,-0.0244870632917592,0.00342198458579619,0.0143442394551499,0.011266521620539,0.0374115277480155,0.000539891696240763,-0.0141482412566606,0.0244907664549459,-0.0100373944296343,-0.00713792844619752,0.0137169629610478,-0.0136250158824577,0.0108921215294855,0.0275661899327086,0.0234859485417956,-0.00754378847835779,-0.020118261644413,0.0305022899559785
"ntellsSinceElicitKC",-0.516578853970357,0.730749151640317,-0.0428632368885109,0.0466324618068108,0.0861551982867197,0.0581349153837448,0.0546593849710695,0.117756111874398,0.199171960294851,0.103043938194305,0.126743693236122,-0.0580415515474884,-0.0504259694875227,-0.11276816000107,0.0727455153472859,0.00699768003417189,0.080812179902823,0.0212514726560832,0.116100508003579,-0.0228269064079865,-0.0483568754383693,0.00730773040936555,0.00689045673747473,0.0373913782848277,-0.0324659782253524,0.0182741886687996,0.0180620467618679,-0.00366821659860753,-0.00768663436698492,-0.00713098195619602,0.0439954455239212,-0.0138160460940677,-0.0248112923021117,0.0261100950193519,0.0212643196266921,0.0232359095484368,0.0638621698192488,-0.0134350199612755,-0.00820009818349006,0.0373036757150877,-0.0234022946118923,-0.0213469883882552,0.0188116028698062,-0.0156747259478574,0.00746843606401788,0.0297184104055221,0.015996331192483,-0.0153435553853145,-0.0216567694965514,0.0120725205087663
"nElicitSinceTell",0.299149040732014,-0.11797852083245,-0.101580424529989,-0.116529860451163,-0.0849647274494773,-0.125774341969124,0.649017132496886,0.151335333478127,0.0491744126758134,0.122561754525366,0.0383875414784935,-0.00898897149051658,0.164552618001602,-0.0132820305894696,-0.0679143581533885,-0.09147922770135,0.0547971037397288,0.012038855025638,0.126829666647685,-0.0756358137972104,-0.0205242516293764,0.064953242645929,0.0089796191501898,0.0901447565310013,-0.100092826442792,-0.0281999946203457,-0.0307450850170739,-0.0301279551189586,0.0841883309335591,0.262872329170453,0.0225831847853607,-0.0660118615222272,0.100389454325996,0.197481772346116,-0.0879069237144263,0.0697910087652263,0.169182135927855,-0.0328287561330908,0.110247881708877,0.0293519384154725,-0.195434269638452,-0.0900651465815572,0.0475018977664179,-0.0453061518643696,-0.0796894197201805,-0.0402775178022471,-0.024888537957693,-0.0266310766745255,0.00363209616480431,-0.0828242518777165
"nElicitSinceTellKC",0.302018935751608,-0.120238246194724,-0.0988329310018956,-0.117216389910722,-0.089773859469874,-0.126502313658161,0.649996098910341,0.150695926640479,0.0487692353399832,0.123380428308924,0.0409486701560027,-0.00754718061240503,0.162762136697285,-0.0147659534348984,-0.0667372822609263,-0.091771455320601,0.0560467836744564,0.0124036108583416,0.126307229673184,-0.0755337429488203,-0.0204228227609752,0.064180520373832,0.00875568048054508,0.0921658860916417,-0.10027051959796,-0.0277751999234435,-0.0299471432338427,-0.0301599525304241,0.0831314731953231,0.261710553882724,0.0227454865108018,-0.0652239312864921,0.0998072999666764,0.195877396132704,-0.0882997166045534,0.0689719671557267,0.166745529065682,-0.0322052398891624,0.109484649462022,0.0278338059278361,-0.193437429571364,-0.0893816335465195,0.0466867031854899,-0.0447485038473349,-0.0792769692326729,-0.0404861155463167,-0.02683030115597,-0.0272110845118211,0.00496121503124039,-0.0822137580252725
"pctElicit",0.460812275979659,-0.618762692146589,-0.0865424432201878,-0.0865255807110899,-0.0478883782926103,-0.132207670634487,0.406961950559614,0.121084155675684,0.252745046333491,0.0522291202912191,0.0847261378464865,-0.0820667062425579,0.00932960631192205,-0.0520719147381838,0.0303805687668977,-0.0249947623081769,0.0321991140410915,0.0169720091772777,0.0865320723636777,-0.0653529195877085,-0.0354222417081832,0.00536794867168775,-0.049886432947209,-0.0489933357153043,0.0219226919390331,0.00273750522928085,0.0060387928631005,-0.0190228856529976,-0.0505451388878683,-0.0835133646315831,0.0489404028407838,-0.0196227001013218,-0.0695212935708019,-0.0296191695627047,0.0561475188846277,0.0131244634270076,0.00369593120679838,-0.0233316923646044,-0.0336594308998042,0.0290329437257348,-0.0122321051082686,0.0249341346016514,0.0128913305300917,0.0284547136091714,0.00775644081284486,0.0194160425379022,0.0163071064014725,-0.0289839925707363,-0.0465469454383257,-0.0031455511334322
"pctElicitKC",0.36568309412972,-0.578358172815632,-0.0570684916948951,-0.0940895070516623,-0.0829483705872848,-0.168040785099804,0.554265547122463,0.123308094231489,0.227809066850469,0.0631020951068046,0.0668022698448612,-0.0974946954578036,-0.0258143091561872,-0.0578359852388422,0.0557734623425323,-0.0378649317869393,0.0184056036754624,0.00569347971491455,0.0553374478644312,-0.0479943215588473,-0.0393018942383675,-0.00520736551907768,0.0286715347618503,-0.08187804474926,0.0238238979496627,-0.0195244523651208,-0.050878250055585,-0.049965757445135,-0.045654073156375,-0.0330422998700965,0.026641495105981,0.021070505903801,-0.0369886636442615,-0.0545848400424968,0.0193302203608759,-0.00920718563363631,-0.0697176244826248,0.00798580682612048,-0.0322559497919961,-0.019524214917667,0.0155919120623503,0.0590445562743454,-0.00355086992353041,0.0377459474111876,0.00313172153036186,-0.0149269554497191,0.0110406657191288,-0.00900025876838796,-0.0215393840982627,0.00634781199550752
"pctElicitSession",0.460812275979659,-0.618762692146588,-0.0865424432201867,-0.0865255807110889,-0.0478883782926104,-0.132207670634489,0.406961950559614,0.121084155675684,0.25274504633349,0.0522291202912192,0.0847261378464865,-0.0820667062425574,0.00932960631192286,-0.052071914738184,0.0303805687668978,-0.0249947623081768,0.0321991140410905,0.0169720091772772,0.0865320723636768,-0.0653529195877088,-0.0354222417081826,0.00536794867168711,-0.0498864329472087,-0.0489933357153042,0.0219226919390333,0.00273750522928065,0.00603879286310045,-0.0190228856529978,-0.050545138887868,-0.0835133646315824,0.0489404028407837,-0.0196227001013216,-0.0695212935708013,-0.0296191695627049,0.0561475188846271,0.0131244634270073,0.00369593120679846,-0.0233316923646046,-0.0336594308998042,0.0290329437257349,-0.0122321051082688,0.0249341346016514,0.0128913305300919,0.0284547136091712,0.00775644081284479,0.019416042537902,0.0163071064014725,-0.0289839925707363,-0.0465469454383254,-0.00314555113343189
"pctElicitKCSession",0.36568309412972,-0.578358172815632,-0.0570684916948914,-0.0940895070516628,-0.0829483705872862,-0.168040785099804,0.554265547122464,0.12330809423149,0.227809066850469,0.0631020951068047,0.0668022698448606,-0.0974946954578038,-0.0258143091561868,-0.0578359852388422,0.0557734623425321,-0.0378649317869396,0.0184056036754622,0.00569347971491426,0.0553374478644304,-0.047994321558847,-0.0393018942383673,-0.00520736551907744,0.0286715347618505,-0.0818780447492607,0.0238238979496636,-0.0195244523651216,-0.0508782500555853,-0.0499657574451354,-0.0456540731563751,-0.0330422998700963,0.0266414951059808,0.0210705059038014,-0.0369886636442613,-0.0545848400424971,0.0193302203608756,-0.00920718563363697,-0.0697176244826257,0.00798580682612078,-0.0322559497919964,-0.0195242149176677,0.0155919120623509,0.0590445562743462,-0.00355086992353078,0.0377459474111884,0.00313172153036148,-0.0149269554497197,0.0110406657191281,-0.00900025876838779,-0.0215393840982621,0.00634781199550659
"nTellSession",0.149981217385373,0.824404388355203,0.207645393909848,0.0353870530928943,0.0471639842349459,0.181207902034429,-0.328131507910663,-0.0555293410375266,0.00208006280550965,-0.0433636421856174,-0.0520804111091159,-0.105929560433447,-0.0132234851402238,0.0167955722746915,0.122502501341888,0.105078352616784,0.0193683035483859,-0.00496051294922797,-0.0119579048695162,0.0121809028893863,-0.0238251661051051,0.0130666632957745,0.0343826494479043,-0.0071407487041103,-0.00594960112456545,-0.00808424583446741,-0.044598084302417,-0.0238606861155468,-0.0184475875584163,-0.0159602175576999,-0.00574521565545616,0.0187137605225543,0.0349251275365151,-0.00287963364267512,-0.0221995430330008,-0.0256025299303969,-0.0506711288842564,0.0208527721701376,-0.0027191386373197,-0.0363088555909743,0.0187727231967398,0.0400604110510786,-0.00848318822919245,0.0153863157549681,-0.00388139419459262,-0.0441954293463417,-0.0131268313344458,0.00160064530365117,0.0216273854025356,-0.0400272864889883
"nTellKCSession",0.187503948867515,0.79240375965789,0.190911046847195,0.0384297138087415,0.0469096364334224,0.183793780361487,-0.414756661528441,-0.0611852762949827,0.00758462109903524,-0.0451350434960535,-0.0410261555126593,-0.0798464041082794,0.0258625833755994,0.0282332944593423,0.0811718522589635,0.106423777395277,0.0271832708054451,0.00560968103829618,0.0102237621293083,0.000912910111868961,-0.0163505361726671,0.0235947047445627,-0.0241186501875823,0.0247439531590555,-0.0139279740983283,0.00541411105615895,-0.00310737519357221,-0.0101444743583693,-0.0222209227647767,-0.0419434396684701,0.0112289252446849,-0.0157724583532875,0.0118074736296564,0.0209023909480629,0.00295165353903715,-0.00738916319171612,-0.0013984688749017,-0.00326005348135821,-0.00425135000889682,-0.00425710185871132,-0.00992893507718144,0.027918762888334,0.00452244394498299,0.0163125410670685,-0.0029411225502394,-0.028141410190515,-0.0195192703195167,-0.0104169376960231,0.0112484161705662,-0.0568946129412727
"kcOrdering",0.646467828853893,0.681071035443075,0.226898552119984,-0.0434194360913401,-0.00996191468358007,0.0837846247837389,-0.00412713345239465,-0.0043496304545343,-0.0384291319777332,0.0131631144656179,-0.0393362151022458,-0.0949736364940103,0.0310496678027598,0.0572012282256475,0.0752972451638027,0.104465155160865,0.0285155796504935,0.00553527079979456,0.0369974255775238,0.00996706904361347,-0.0112383586004901,0.0320197007308251,-0.00749012138605098,0.0124824173975373,-0.0129165045415801,0.00390144779855591,-0.0130587252639156,-0.0215667333278834,0.00242605181399771,0.00847566212163777,-0.0138320427423012,-0.013872266202161,0.028350320945938,0.0193893326519745,-0.016897055376673,-0.0248081563568275,-0.00962164776621858,0.0173909016965387,-0.00552113322478091,-0.00408230799156936,0.0181612659017967,0.0245677741037389,0.00167852536829199,-0.010808410329024,0.0166475925369893,-0.0227299427203851,0.00915547977294558,0.0116621959254874,-0.00986624894964401,-0.029705828905365
"kcOrderingSession",0.534706759206869,0.650072643840436,0.182493595076903,-0.0722733957941138,0.0544077033286421,0.15391977624442,0.0307219148796066,-0.00564852962554429,-0.0311372519676655,-0.0691082653027787,-0.157089589431637,-0.14609354336137,0.0351006035322171,-0.297565295445381,-0.0841473790413828,-0.0349871283582735,-0.000373912879579718,-0.0567109017311024,-0.125124085539507,0.0554265417515854,0.0859045833423491,-0.0507737579766269,0.00481203822903979,-0.00704527649568455,0.0875126208097134,0.0457598110601082,0.0166557254519312,0.0447749019962349,-0.00951782311053956,0.0107931376331293,-0.00288397380169901,0.0328902618785698,0.0185780805182588,-0.00529793800388947,0.00729259133883706,-0.0356430934640103,-0.00324413355695584,-0.033780357631739,0.0265911528660118,0.00606024073540341,-0.0240222781831274,-0.00656673519803074,0.00189501496468711,0.0131945307409009,-0.0148184848920582,0.00823591232766266,-0.0190667554957342,-0.0335526314916049,0.0628893062111945,-0.0200132005956771
"kcOrderingPb",0.118019539999678,0.237382956373719,-0.255904369293362,0.139240029892905,0.770512393725562,-0.294802545472415,-0.0105056794584536,-0.02190802848851,-0.128312342903221,0.0579399814330761,-0.136186970170172,-0.0504667889697749,0.0918971055094797,0.00296549058800578,0.112188971671456,-0.0354177458202128,-0.208779136298028,-0.000873555807292793,0.10570359734196,-0.021580653749165,-0.0222425239132106,-0.0468188673035156,0.0259806272304053,-0.0159144854176584,0.0146164803069592,-0.0800074563784368,0.0358284437483964,0.0150014836167665,-0.00805437642369008,0.00977985253448612,-0.00899129040589799,-0.0127408100682861,-0.000779633986975196,0.0364513136209811,-0.00874387375391747,-0.0265602010218577,0.00569974858036876,-0.00482679140299961,-0.00501108382360956,0.0156990393420816,-0.0147542549631941,0.0293988839058129,0.0137115404434703,0.0208412213742782,-0.00401968326228863,-0.0016187031311934,-0.0152929681038238,-0.00175743473567724,0.00355379697479682,0.000702924311111918
"durationKCBetweenDecision",-0.055511351258637,0.00988853324647798,0.0269323695941225,0.0435281372970894,-0.0820791830732772,0.0350683046382127,0.0342378280044728,5.95708149741214e-05,0.0269404077847951,-0.018251253808992,0.0161496306653864,-0.0424927640645161,0.0350668345126445,0.0990830561887247,0.0863599484591307,-0.00263910122709497,0.0971344176274783,0.031313309158406,-0.020445436490596,-0.00546024224561131,-0.0854515440368883,-0.0313991945293943,0.0164573954338324,0.039272949537115,0.0701835894010913,-0.0157234933488352,0.111694849649084,-0.048077515840102,-0.100276049469599,-0.068687567258844,0.00119920621784873,0.461843332228994,0.163097118019213,-0.0113331064148674,-0.140280866631257,-0.00374836469010876,0.489161023259128,0.366692299994667,-0.412954769478637,0.0121418475293412,-0.0958132719755646,0.0840372736718862,0.0254332079704174,0.251839275306588,0.0522115564120003,-0.0481698947736635,-0.00222990452391233,-0.0560462607703744,0.061813056345777,-0.003167575798587
"timeInSession",0.0157887523761979,0.011236559457092,0.0191429078694937,0.0506254751909662,0.00306238840963191,0.0109282282419212,0.0269164432481358,0.025463147616505,0.00283113250880218,-0.00528383284741049,-0.00905464139862874,-0.0161280940998846,-0.0533844244070283,-0.0456504862829235,-0.0297589995942526,-0.0255645843553053,-0.00549664969879386,-0.019511108119414,-0.0820663942782996,0.0211342727457422,0.00251698521116896,-0.121569792476741,0.00444145301654223,0.0221765368272128,-0.00819929764389381,0.0308568453573394,0.064222582366958,0.0880643110164317,-0.0830917741977316,-0.0123743773460404,0.162863521087334,0.111871681342724,0.11583641004297,0.509046547225775,0.115810836304118,0.608016513921934,-0.365477333229013,0.197403214827302,-0.154643026065028,0.0392138178924133,0.00577033912197494,0.0693867040611476,-0.0472061301090465,-0.10816952570324,0.0584833577179012,-0.0957672065337547,0.00063108175806884,0.0415663436809786,0.0107388268776949,-0.0153810969633767
"timeBetweenSession",0.195506226098352,0.0273643108059574,-0.0179716968363684,0.0311904595765732,-0.066783276730851,-0.0643763229822978,0.0385847298440319,0.0293912899585239,-0.0623026417247702,0.118369003197133,0.147524430993266,0.0526239542270266,-0.0265114213263725,0.486761414859772,0.241654102262428,0.184199014941646,0.0739126323479099,0.110559561513804,0.331234306193544,-0.0192488863918277,-0.101525232949709,0.147293209558987,-0.0260867289123435,0.0450499696094976,-0.110038575828581,0.00154168794489278,-0.0172485451321435,-0.101944421682907,0.028083088947394,0.0599413396507064,-0.0306784973977473,-0.127126194459188,0.0468749309667071,0.00975411994225138,-0.155814188309493,-0.0341149572875374,-0.0310302380883967,-0.00814926741787063,0.023750571987512,-0.0188766760850105,0.0900832288037513,0.0290136835430896,-0.0406256951472549,-0.0296736414410876,-0.0832892921929156,-0.00337996631662927,0.042096529357149,0.114122172239978,0.148548417631548,-0.047889474642703
"timeOnCurrentProblem",0.0420407089681997,-0.124210589008577,0.146793068829866,0.695856135861593,0.0077295592197438,-0.0632065383030368,0.0581096262548449,0.208797651694798,0.0156464081451521,-0.119536838670117,-0.0301948695140211,0.260417511983827,0.312558805569003,-0.147654014969073,0.226026218426842,0.226742580862762,0.0579738565282409,-0.0591923095390449,-0.0963424054024843,-0.107152408488642,-0.032700825390493,0.0169060917505912,0.0357899113652232,-0.00407175301977249,0.0384097542015388,0.0234697350674392,0.0305418576027252,0.00869923605700093,-0.0113925322527429,0.00133435900664234,-0.00685313124626657,0.0224909243978395,0.0119140420895875,0.00418757127933604,-0.0048290820638861,-0.0237933300980742,0.00608292835287525,0.0242078024288192,-0.0560806522177142,0.0507514048250321,0.0235657433086804,0.0019690101807104,-0.00910560243370673,-0.0540408201317,-0.0963152434922586,0.0229370227233079,-0.0079154999515623,0.00480683382399858,-0.00850673428583671,0.00470574028581776
"timeOnTutoring",0.355262205917867,0.133662582622425,0.245543209823091,0.691033507767633,-0.0413634220906375,0.0488287603247758,0.0319433154311161,0.243736413262315,-0.109887972638024,-0.0166222409078379,-0.022661660840724,-0.161223857735172,-0.234639853489062,0.21178012793802,-0.0912995473447667,-0.149484112433587,-0.0307347854197832,0.0200116024170599,0.0056037306362338,-0.047452861585443,-0.158046706023187,-0.00391251966889978,-0.0345942348617173,0.0271845552515228,-0.0342555059352965,-0.0139614841857217,0.00476158720827144,0.000202894238567358,-0.00192688007071526,-0.00655369419315862,-0.0134635284997732,-0.00619824579428863,-0.00989779236780637,-0.00985412435440183,-0.0050683856584421,-0.0114864938392595,-0.00487643328804414,0.0135170833518682,-0.0415519109858687,0.0395198699371937,0.0298115169943473,0.00188985264434499,-0.000281373304008645,-0.0329570057769303,-0.0620819153737802,0.0345391674946858,-0.012204250648204,0.0460910358590213,-0.0518792749272205,-0.0107307346425091
"timeOnTutoringWE",0.0286944501299628,0.189863931991814,0.143232148132657,0.579452023690171,-0.0265880170472073,0.118203305394284,0.090247570528047,-0.422777685470687,-0.00353890445253637,0.0434952055783361,-0.0170009952258243,-0.141256935487944,-0.148478206242767,0.163617060502016,0.0241446928888058,-0.0946571243966985,0.0119636091925394,0.00590531510720543,-0.154879652933839,-0.479622699998383,-0.144669770973142,-0.0144686777855599,0.0173746860537428,7.88751943724084e-05,0.0144470374031811,0.0538655703039716,0.042085149252502,-0.034498648560853,0.00114203242447418,0.0224334718053942,0.0159369083523561,0.0213481004424792,0.011078312984914,0.00587893857630232,-0.00212841720725147,0.00289913368129297,0.0341082541105722,0.00530413714518155,0.017232383712718,-0.00868896271773387,-0.0235885852199455,-0.00629730632503343,0.00155591662439728,0.00930781795210975,-1.16149236347698e-05,-0.00622564869267946,0.000238201707067447,0.0344885564109888,-0.0105616056037129,0.0212631189164003
"timeOnTutoringPS",0.398901369094645,0.0726026695847063,0.222312718523534,0.549351968480781,-0.0363858815068468,0.00538933307785857,-0.00206456613291267,0.46512007278828,-0.125695301068129,-0.0380643188717493,-0.0188813677756532,-0.125543776364311,-0.207419143598164,0.174402297598374,-0.116151971377356,-0.13211434049552,-0.0407606074960457,0.0206140149660128,0.0735007159955886,0.152581389866394,-0.120388667738327,0.00173040745464019,-0.0475702616724028,0.031439707214577,-0.0459113616607477,-0.0394707527184053,-0.0126963730305726,0.0151616670352254,-0.00272504107083946,-0.0172941994786104,-0.022483381677913,-0.0164130522839669,-0.0162528298183448,-0.0139526238477284,-0.00494717783707649,-0.0145532626378073,-0.0204036997580161,0.0133548823845843,-0.0555641747047961,0.0495149720198991,0.0447215179572225,0.00491273791777796,-0.000998978201440855,-0.04218435914499,-0.0718724035088339,0.0426825775318396,-0.0142329466541919,0.0384410567789265,-0.0554952182776985,-0.0216239244226938
"timeOnTutoringKC",0.190010558916628,0.0878352136974109,0.191882141634205,0.620537983603076,-0.0247327512951463,0.0994158280279621,0.107762954382119,-0.265744574328737,-0.065042605527262,0.0341331542329623,-0.0206158826981444,-0.169740727170186,-0.249761824337573,0.215359333638401,-0.00178596378271933,-0.130526244743731,0.00411054559177534,0.0808894425132533,0.000875384900279593,-0.395807731305465,0.220437303698287,0.0325473545702494,0.104900632762646,-0.0153432721401643,0.0583887093921533,0.0582563445309882,0.053389405133868,-0.0102494646790243,-0.016443502593618,-0.00546474557517762,0.0150245378566651,-0.0107060236011626,-0.0114532442081868,-0.000733644860089739,0.00911825814740841,-0.0154951187893493,-0.0126831913639815,-0.00525851537678677,-0.0343729318998903,0.050014939931643,0.0237551988988524,-0.00571432135301761,-0.00839303877273352,-0.0600110012812933,-0.0739930716722528,0.0101740038661701,0.0143888965299991,-0.0530243159677607,-0.000189363482257809,0.0198913063529732
"timeOnTutoringKCWE",0.0460993577374952,0.0912006114087029,0.134219284587311,0.554000752007,-0.0158429295799969,0.113677555352757,0.110591214848884,-0.462411837662818,0.00508590017719981,0.0439773670785995,-0.0237956106538118,-0.138380051669196,-0.142866328421692,0.119828132678885,-0.00936401337978186,-0.111794046277094,0.00268035210543653,0.00755334236944544,-0.1718048802474,-0.517245628494254,-0.0995462774812667,-0.0123926669037079,-0.00634083437138779,0.00788340455513407,0.00312897282732465,0.0492049363782224,0.047705936503116,-0.018340573696661,0.0049577306558604,0.0178111919409669,0.0307402410418078,-0.0292401133256885,-0.0181341507917197,0.0103642632432957,0.0138900509829018,0.00497278671429442,0.0238122235348639,-0.0221511482504012,0.0424487600363016,-0.016073112640077,-0.0230207604273106,-0.00408760568240581,0.0101906140539756,0.00811363414350526,0.0294051052908584,-0.00516112954030464,-0.000296160383229834,0.0108743711470157,-0.015125525583345,0.0284933860342163
"timeOnTutoringKCPS",0.274483518465894,0.0243143349430541,0.148530660925889,0.304317356523426,-0.0212836947788929,0.0121800172441193,0.0317395147304321,0.200118946554392,-0.124581354023218,-0.00307918178764687,-0.00219957383264058,-0.102556006465274,-0.240060102466831,0.211924440053199,0.0105265686917585,-0.0709624351278953,0.00346792858946503,0.134566502660577,0.253713326231054,0.0463967338510315,0.543017051777267,0.0767928155906784,0.198192462953451,-0.0391970048835687,0.100544208515832,0.0326857923208389,0.0261221547763695,0.00846077366921833,-0.0368844532592265,-0.0359792780826766,-0.0180601340391012,0.0236346078912767,0.00599027536621943,-0.0165313860230721,-0.00396616359503873,-0.0351988647891789,-0.0577839810551549,0.0230399219885575,-0.124189662426521,0.113646743355578,0.0765589902994296,-0.0042904741357502,-0.0300682450937068,-0.119964753416777,-0.176388128564591,0.0258939354170078,0.026343657828077,-0.111435944358705,0.0218569178236879,-0.00599946950476186
"avgTimeOnStep",0.0043031742708556,-0.220613456660958,0.224497445475835,0.853249597984783,-0.0415236944332152,0.034419201680801,0.0663185349771163,0.130275302509088,0.077753797744661,-0.00699992791620731,0.0361851418881055,0.0123282254564436,-0.0559946153451372,0.00674322729749664,-0.0622132146572834,-0.0567592004236983,-0.0121999002232913,0.017380590314801,0.0813023117006931,0.162509546414927,-0.00298151625730782,-0.0247640025761239,-0.0347536881789946,-0.00163627498789536,-0.0409248792570201,-0.0378279561815387,-0.0290972605253095,0.0064591580536216,0.000634166971843529,-0.0208068078131448,-0.00424841143534041,-0.0123716298168686,-0.0044344970657581,-0.00964566229507773,-0.00236784206975066,0.0114252435566,0.0132023411570434,-0.0192259167500666,0.0259678237907339,-0.0554358473268852,-0.0187903121249447,0.0142349162621932,-0.00305670632542179,0.0485040643354618,0.0947483957953846,-0.0578951257821921,0.0291941162155683,-0.0561686025102993,0.0499866906011727,0.0214035939682755
"avgTimeOnStepWE",-0.046152596162995,-0.0285197536303608,0.121941251594458,0.599628366300991,-0.0372312127427952,0.087877707909728,0.185697263217982,-0.668613373722451,0.10322102030839,0.0789640840749128,0.0422881692927097,0.0128335727180167,0.0644662752618272,-0.0299757796097627,-0.053094855683906,0.0027225287202575,-0.0194443387196301,-0.00538142242814745,0.0603570611549038,0.206978356634005,-0.0296823800667065,0.0170251614626619,-0.0242819054674157,0.00547232077146537,-0.019338341128127,-0.0170522416301177,-0.0189909380377875,-0.00444787671451176,0.00498630630362557,0.00356628279811452,0.00477373630278713,-0.0331328248455632,-0.013557570528105,-0.00176916307241423,0.00548221019576699,0.00946033058413599,-0.0114935184223418,-0.0129953611970575,0.0290900415145404,-0.0400398434779943,-0.0176606328372614,0.00602923133184821,0.00779413821498969,0.048654444236908,0.126471863406179,-0.0434922510707147,0.0121173047218971,-0.0681699576271448,0.0128290809845643,-0.033219252443783
"avgTimeOnStepPS",0.0454324803068436,-0.131733221345877,0.172842576156986,0.621913991917898,0.0109235408060863,0.0455075159729533,-0.161379838599364,0.523267859147899,-0.00112635814252953,-0.0737412513244689,0.00358299919805166,-0.0446944247750969,-0.171191390468166,0.0122213481734558,-0.107645991698926,-0.124869316972654,-0.0292577524725554,0.0340212860483568,0.0921323156469891,0.193537208132386,-0.0384721797456493,-0.0281630392533781,-0.0552164098551841,0.0493103851710667,-0.127439414699077,-0.095801759941757,-0.0683509829151058,0.00912212916678463,0.0263924538596456,0.0407379020671417,-0.0244547129461582,0.0159258343050851,0.0302706667697147,0.00769525423673766,-0.0338293610992812,0.0203485368832018,0.0362901568282774,-0.0165290122560979,0.037436731488465,-0.0666394880191826,-0.00374615651699814,0.0210183216096483,0.00754069903823641,0.0292855097245777,0.0280232804484286,-0.0476189029304306,0.00512242230331145,0.0260696394302394,0.046014966640362,0.0486770111123921
"avgTimeOnStepKC",-0.0258589038494925,-0.107833189230478,0.162861878062105,0.691788932802399,-0.0339275639009237,0.0805852234908687,0.159070373267675,-0.44964448266429,0.0815202889884862,0.0497417148588795,0.0360939685353102,-0.0107916865577139,-0.045751885078731,0.0196929752129209,-0.0359398263761036,-0.0379912326265694,-0.00637384055390141,0.0772091158353542,0.177006803736909,0.109690905124171,0.333927028626293,0.0395902173893919,0.077045223621838,-0.0270228420130628,0.026689140347235,0.0100778456613693,-0.00155311832107228,-0.0013616776021494,-0.0167579941178266,-0.0105074897009997,0.0243410643239606,-0.0108730474117349,0.00863313610273501,0.0183316238163864,0.0132202119157183,0.00822520584356147,0.00342399718972623,-0.0134485353608945,0.0433031444622956,-0.0372513821213471,-0.0281408520205694,-0.00634148161692391,0.0014605500172433,0.0511547804178588,0.0932460414899069,-0.036654634230088,0.0178257652311625,-0.100630002875309,0.0371984346511847,-0.00586126455095247
"avgTimeOnStepKCWE",-0.0273325118682613,-0.0356072476585538,0.109041324029175,0.522089761966705,-0.0294730198581311,0.0798037733097521,0.192167658179679,-0.648175367470837,0.127042667580926,0.0804313881873766,0.0548936655138056,0.0230588168766286,0.109077398167837,-0.0686143898283144,-0.0566776200470241,0.0253870311771829,-0.0197148331982884,-0.00853542823126947,0.0943740141860496,0.308603298794387,0.000597974792300231,0.0241051671766356,-0.0362023167545206,0.00588142647265602,-0.0302457235651466,-0.0362388873165028,-0.0352671350264372,0.000820058348304439,0.000568556022333613,-0.0109640921160426,0.0110638841913699,-0.0501076330224834,-0.0219435910718605,0.00214322936394783,0.00894217622957231,0.0102579192622794,-0.0186524702526636,-0.0192478540938648,0.0316103107516108,-0.0451173585357384,-0.0200682512101378,0.0183030191725639,0.0153889271996145,0.0643414778238753,0.148626336353518,-0.0554387647251705,0.0137620567524166,-0.0916870329748796,0.0160291984885854,-0.047267194613651
"avgTimeOnStepKCPS",0.0193489334415362,-0.114971406476015,0.104428479609594,0.354049124419103,0.0153845505303879,0.038446722841106,-0.127198351600106,0.209385525764416,-0.0246425228945952,-0.0418147214616378,0.0152697876734968,-0.016683462487695,-0.149857885826481,0.0810719257806192,0.00745276302221513,-0.0451615902223113,0.0157818450671538,0.151783556853427,0.284938070846032,0.0434598517482048,0.650951704108798,0.067610712623501,0.187267016141127,-0.0347353110516847,0.0691193607812994,0.0360174247994851,0.0253451574689106,0.00482021273854065,-0.0198008420189352,0.00265329370774832,0.0132498263149798,0.0346136568370323,0.051478250542945,0.0465831759780214,0.00244167670495933,0.00460459364533945,0.0351598574972531,0.000611131997835114,0.00235777148353002,0.0257133286886562,-0.0154224065453348,-0.0380039778744757,-0.015484224020999,-0.0252710763776073,-0.0454280578780629,-0.0159936197050407,0.0487067430578803,-0.150783875223986,0.0777782030498174,0.0524906985731916
"timeOnLastStepKCPS",-0.00515712311114847,-0.0500507012251915,0.0488518531228067,0.179638001230365,-0.022600959363583,0.0094151337515788,-0.0287057611315163,0.140186573476731,0.0170451387987426,-0.0320937710060766,-0.0149649663506816,0.105583771435176,0.000570816538832926,-0.0434900743720018,0.0841971977452043,0.0695418063951243,0.0387684512015307,0.0805862846048702,0.0920224742260096,-0.0507083840595461,0.454152452040886,0.0621035069560654,0.183964041255435,-0.0567992669969306,0.0742564125918905,0.0629380697439612,-0.000870361379611087,0.02564344090562,-0.0454987112271649,0.0283095597102461,0.0818996583761727,0.107348906713895,0.0426499411490876,0.0387893645268753,0.0730382470062014,0.0144145773918714,0.0404554100305554,0.0321373886443581,0.211178772331413,-0.127269728867029,-0.130136274040609,-0.0358741883588211,0.0467346501477787,0.263683978804958,0.18260418170901,0.151211895453494,-0.197044415695961,0.522257501767501,-0.243541236340463,-0.10112471270659
"timeOnTutoringSession",0.303157889884279,0.132559963288554,0.21543995244634,0.666466299868069,-0.0116899744571562,0.0892340999249713,0.046340126810794,0.246118854231422,-0.0906068214451849,-0.0721159055349532,-0.102040715023882,-0.174041661934381,-0.195560547466903,-0.0536851632773398,-0.214793556439581,-0.235802145901717,-0.0515915044218784,-0.0295479475346256,-0.112451281627682,-0.00924924342511449,-0.157796484251698,-0.056611858283336,-0.0868968223256572,0.0358176183954918,-0.0632176754823293,-0.0444107398536132,-0.0154962929771451,0.0685014814448575,-0.00339426761957837,0.00707502700731915,-0.00172054296819743,0.0211176936944334,-0.0231288710597084,-0.0227608537788281,0.0200703724732336,-0.0151990690720836,0.00805891955613163,-0.00352981300575185,0.00437896450395796,0.0144060920984601,0.00413786349878712,-0.0174511511214842,0.00332180900397933,-0.00134257256282092,-0.0544390560411379,0.0713993143749124,-0.0440234634820486,0.0810930394353909,-0.0271855315175228,-0.0187760097786384
"timeOnTutoringSessionWE",0.00251095012829932,0.182442169089248,0.122920112152382,0.544381191354157,-0.00604580959875517,0.144910889071855,0.11961126024927,-0.456886234065515,-0.00141086905198448,0.031734882357805,-0.0519445346745249,-0.162769387307329,-0.140211143654846,0.0240023440113245,-0.0512330058434704,-0.137142134995928,-0.0103587897705579,-0.00588568328752973,-0.17396374072082,-0.419432407307981,-0.097669179837958,-0.0367410571468496,-0.000661102265262352,0.0023740264718795,0.0153998607671152,0.0618283685659291,0.0425016676421956,0.00678761547327475,0.00327619115347742,0.0414133560273706,0.0351299862992009,0.0086866479552427,-0.00423364448954104,-0.00515350915077168,0.00832923420277281,-0.00302278863872348,0.000689346531119328,-0.0262347975815868,0.0574526173515763,-0.00563871867464818,-0.0228678560862401,-0.0266729809071843,-0.00478893031857944,0.010635683830268,-0.0487399637014913,0.0340300700560721,-0.0292635142656137,0.0431987669851267,0.0149359340521302,0.0189084451877891
"timeOnTutoringSessionPS",0.344589549013571,0.0744433622805405,0.19396065820168,0.531024730571746,-0.0107867832987617,0.040822765529079,0.00255266791751487,0.472677141900785,-0.102712158135166,-0.0955635155867711,-0.094505244520924,-0.13000867969631,-0.164026405510293,-0.0712991364569835,-0.223359370157978,-0.211197959264236,-0.0544673809303346,-0.0312148431043248,-0.0550806202446346,0.165774743549577,-0.138853470839954,-0.0491008001282795,-0.0987973928133705,0.0398394247885104,-0.0785513218374497,-0.0766261515449345,-0.0355348557436667,0.0752485145410564,-0.00524720955064938,-0.00934269031576486,-0.0167295567715624,0.0204256348899254,-0.0245906220652426,-0.0237843365247881,0.0193817818431788,-0.0160584854675674,0.00889858100558298,0.00700402604508319,-0.019159159130205,0.0187954829390918,0.0143309291051113,-0.00868416786586921,0.00580051857624589,-0.00600174251610701,-0.0415794030879871,0.0671003401081115,-0.0378915534889784,0.0742983082165798,-0.0372742922175357,-0.0293561435193511
"avgTimeOnStepSession",0.000133041901244529,-0.206665727603009,0.23236419554692,0.844137000883021,-0.0526473988994904,0.0220908311104735,0.0568370140785975,0.145732019433391,0.0904576823581281,-0.0227723079175743,0.0265057495963184,0.0417534500782142,0.00202242829093841,-0.0397283730744062,-0.0572022303142999,-0.0284384941439121,-0.00466568568931467,-0.00392597744420727,0.0227608553586599,0.126597216544888,-0.0659310681999408,-0.030295270032709,-0.0625403396576338,0.00635476057221541,-0.070514926646189,-0.060030714697145,-0.0442470860345932,-0.0109628847544319,0.017391092185293,-0.0189488847233856,-0.00336255572648372,-0.0305425065469619,-0.0167797024843562,-0.00274381619487635,-0.00478482138515306,0.0170878764333717,0.0232061607708335,-0.000414940255455143,0.0334352939712143,-0.0661884971099049,-0.0257250015707568,0.0115780345769636,0.00473538456616036,0.0669775400167178,0.132119806491086,-0.0661461581893321,0.0259154723704643,-0.0319339782003025,0.0282768110558242,0.00899695665153651
"avgTimeOnStepSessionWE",-0.0556179830814645,-0.0271933755326164,0.116474568862534,0.578622239237424,-0.0351710051139515,0.0889900588473854,0.189370979499123,-0.670402220736483,0.107127290645454,0.0767648342131602,0.0375925626778258,0.0157997974586608,0.0729075227485882,-0.0594176944647399,-0.0646140855685205,0.0028572427517038,-0.0217445991691952,-0.00588644434188607,0.064773760271052,0.237973013819945,-0.0191255761940253,0.0138277368810286,-0.0304131380469966,0.00671406681771358,-0.0256830414132309,-0.0232533810208251,-0.0216085589582524,0.00567619036280404,0.00347349881526343,0.00321363315166977,0.00647761444356385,-0.0205191174552763,-0.0116697859665446,-0.00416254128257455,0.00448444489952354,0.0102030962273351,-0.00728048401050507,-0.0136597093155191,0.0279418552043128,-0.0393802959929843,-0.0146533738759993,0.0066705932384039,0.00758852799485939,0.0519947191226071,0.109690342458851,-0.035929800807386,0.00668445256225061,-0.0623117564808749,0.0188815244146462,-0.0353692098763633
"avgTimeOnStepSessionPS",0.0496120807627653,-0.125947016638887,0.182079937291734,0.62707551174748,-0.00226441852325115,0.0341819054801915,-0.160763095743705,0.524121703634433,0.0110280937766423,-0.0858753070588393,-0.00295530744740782,-0.0201261080755661,-0.116372932544918,-0.0250476094789692,-0.101008087451915,-0.0996582712325306,-0.0259560846088749,0.0106499979543046,0.0315241901932268,0.153067045047744,-0.10299092292379,-0.0405756113377134,-0.0782836422663565,0.0478287955744059,-0.136478325733111,-0.106525393215051,-0.072639497985496,-0.0256478573851959,0.0452084172490305,0.0411549507749005,-0.0157329866421435,-0.0295187299618386,0.00306486336752723,0.0126366543510869,-0.0383854646753199,0.0220306736042233,0.0344312147954876,0.0128687569676295,0.0434271515942546,-0.0686523101891543,-0.0184730757161881,0.00571910339934051,0.00745203743270717,0.0594842704534236,0.0761904831192813,-0.0592308547355574,0.0059704438789949,0.046262773210703,0.0183123581272388,0.0375056323412468
"timeOnTutoringProblem",0.0615091978695716,-0.12185265195618,0.154930838668386,0.719790873902337,0.0178084554801715,-0.0625597788821515,0.0609631568520583,0.21553733339838,0.00564194062208146,-0.10337129937846,-0.0318787223365158,0.285476407809055,0.307168059290682,-0.160877893558747,0.215994988822626,0.234244012322247,0.0490686677544461,-0.0652243034363023,-0.0962304291082521,-0.109612947078823,-0.0254259237862348,0.0196266263026618,0.028888670632557,-0.00825452906979942,0.0352699632260028,0.0229226195784594,0.0206175614231994,0.00454024312253685,-0.00244051754217168,0.00874564398402526,-0.00653287166847963,-0.000646796784936662,-0.00122502495666056,0.000825672725400462,0.00614521527031691,-0.0191214627761833,-0.0175597846494591,0.00269142618257585,-0.0276259748670022,0.0480484464158855,0.0296520375887885,-0.00376773234837075,-0.00682067308668532,-0.0643390048411968,-0.0936960349353658,0.0272734338726087,0.00512174589357304,0.00802597546667152,-0.010553392956805,-0.00082145260758306
"timeOnTutoringProblemWE",-0.0784699655223353,0.0255902356591066,0.0577786185899244,0.455385022664231,0.00798071197510207,0.0474455183037603,0.152274059327737,-0.483646703312019,0.066969457328334,0.0479938266667264,0.0451965086198105,0.0976016440731781,0.143152190606731,-0.0881490974862196,0.0426685143165911,0.10955066313034,0.00393835813404037,-0.0396986765005316,0.0493703623032397,0.225014586986479,-0.0883257227137678,0.00949695744339437,0.0174861965889208,0.0158642355408809,0.0344021607682474,-0.00388417286199056,0.0119703227410558,0.0219637738388183,-0.0100654390883469,-0.00920388043154276,-0.0409060565737087,0.0813945794509762,0.0329720525833662,-0.00534331818691077,-0.0209576369288897,-0.0160950700635669,0.0152567356663444,0.052599817222027,-0.110687721726355,0.134664688923501,0.0534768356646086,-0.023573553382777,-0.0163498043388049,-0.150923282838601,-0.380436279541399,0.156765556960497,-0.0512436602929062,0.252550750146896,-0.0902763184133289,0.0655370514859969
"timeOnTutoringProblemPS",0.0989680090846285,-0.142664282103177,0.144256599368964,0.593329738126658,0.0160307940729193,-0.0873508643689884,0.00349996110391823,0.432600791787523,-0.0214177236387349,-0.131834079513114,-0.0531542754690367,0.269451634914704,0.274245801798406,-0.138218295802036,0.216690064649148,0.208979901954601,0.0515928204444624,-0.0544089794242828,-0.124656208580806,-0.211389089071441,0.00874425965445722,0.0173790561660598,0.0241382488896292,-0.0154745237604395,0.0241029952833727,0.0264553429947737,0.0174366857479468,-0.00410729378210422,0.00149204283551213,0.0132685463364932,0.00973497221491725,-0.0341687327831457,-0.0148857138340105,0.00309242740109702,0.015281366517269,-0.0141182641056058,-0.0253157544094444,-0.018708968644957,0.0155530979233802,-0.00326479364463163,0.0101676689392052,0.00560693680732112,-0.000674019559221395,-0.00771627951159069,0.0548174277146931,-0.0348814071496832,0.0266242917121647,-0.0951385393752382,0.0256747045004035,-0.0278379370152398
"avgTimeOnStepProblem",0.0330656521532947,-0.173827304051396,0.215598374994903,0.706843727445978,-0.121535762640519,0.00412869988299094,0.07093934716861,0.193482480173618,0.0643621385447607,-0.0828587398741378,-0.0224014494798079,0.279624838484654,0.286423079275843,-0.164672493132717,0.168127487257299,0.254471677914631,0.0963890241883639,-0.0456365746542219,-0.0895035310833029,-0.0566565398699163,0.00724535330176894,0.0323519742739615,0.0162503854613436,-0.0107421882539856,0.024418160605387,0.0271164270608823,0.00275034091555799,-0.000761123129589406,-0.00111377704883301,0.00428132079257285,0.000679826750388653,-0.00161336557316635,-0.0017375981345304,-0.00162962721975019,-0.000679231576181976,-0.0155648730535047,-0.0175771513004833,-0.00251153675811854,-0.0225681853911967,0.0302923550942916,0.0206101435600149,0.00518934248285536,-0.00635639195607875,-0.0453866313745792,-0.0412285942291951,0.00285334560019377,0.00960287042015712,-0.0319228686770779,0.0169111176203759,-0.00182330625441305
"avgTimeOnStepProblemWE",-0.0597900415284489,-0.0286013706570208,0.093763127515541,0.481770350270239,-0.0403840490266676,0.0666589840681096,0.168085760390484,-0.584556031687726,0.118198708335164,0.0594716708781908,0.0551727072447715,0.106124633719678,0.180526923289186,-0.111948718354102,-0.00158912356711158,0.117614650372581,0.000262866060348015,-0.0329560141068919,0.101922162228777,0.40214738496322,-0.0355733593443887,0.0228630524972153,-0.021946919563642,0.00981218976741389,0.00952763278677952,-0.026884200476191,-0.0206844220057864,0.010473827970418,-0.0056431171816625,-0.0206921389467991,-0.0236287793599119,0.0238276999005595,0.01128970134121,-0.00314713497994074,-0.0134103876154299,-0.008942619325514,-0.00656194601300918,0.0282788612138725,-0.0684805789981557,0.0722657727070243,0.0343957606260092,-0.00201285636902868,-0.00221800691813485,-0.0722486785277893,-0.17217046055225,0.0708673713855119,-0.0231968646314594,0.119586941828451,-0.0538991491911851,0.0136839988993121
"avgTimeOnStepProblemPS",0.0721836255209883,-0.176174269920588,0.20474470930476,0.57565731601095,-0.0979186936535393,-0.0116681751588148,-0.042627007394532,0.400115096591,0.00163293530810036,-0.104790518435361,-0.0545573247316511,0.256378527448494,0.220591762364229,-0.126788657700093,0.178967866713694,0.227604193093083,0.0828229261740166,-0.028300758371558,-0.119378857572502,-0.216424644881698,0.0830472733597787,0.0254110170108283,0.034607637533469,-0.0304772360715329,0.0407821947383596,0.0588689541346341,0.0182223733254541,-0.0275632441715053,0.0108700072334442,0.011166619971535,0.0138493786952905,-0.0207053623675085,-0.000499816544561618,-0.000151381028086187,0.00700788823067698,-0.00868401667722493,-0.0202272642956607,-0.0197791604877098,0.0422352919358623,-0.0298687011690283,0.00132072912125099,0.0098233241867159,0.0028305408353745,0.020048554622976,0.0982217743013066,-0.040916476122174,0.0322306846275845,-0.0864508700468394,0.035880568083194,-0.00837877127184474
"nTotalHint",0.0267637325182965,-0.0347930015854683,0.612549845693473,-0.233504283942287,0.478517387558919,0.29971089749638,0.156842586188933,-0.0388209750417944,0.0826322899602759,-0.279400964828843,-0.0463748048630981,0.25031791585935,-0.0741015822301974,0.0882881583394765,-0.00238691024649711,-0.0511813816879067,0.0211634808182162,0.036553309550468,0.0308073856869192,0.0198620096049493,-0.0751667479939666,0.0340100932460928,0.135825930483754,0.0388110943540081,-0.0534408597411543,-0.00437438194827863,0.0121156075480349,-0.0105391995442113,-0.00273290512417458,0.0391145200010749,0.0392216405588523,-0.00378615364150225,-0.0353480345200021,0.00570037048843137,0.0302244007412153,-0.00861733274403462,0.00580315729207518,0.00697910986081923,-0.0017117154406649,0.025319176439175,-0.00534796373094485,-0.00918147194006691,0.00324498540933941,0.0164393744459075,0.00933566568486586,0.000722289986997486,0.0301248862805837,-0.0111752098452285,-0.021486243756138,0.0252550669227998
"nTotalHintSession",0.0249191872984673,-0.033785463367725,0.606005613979501,-0.233991568050959,0.476488396620637,0.299433246512776,0.162845052176412,-0.040889517744312,0.0823183394594211,-0.290011966485267,-0.054798216398053,0.255911049902957,-0.0798084775184162,0.0752813982073667,-0.00291990182337864,-0.0554763968577947,0.0226010518921699,0.0368193838988287,0.0290102440099382,0.0198131323153603,-0.0748984982272217,0.0329408975142022,0.137648195202372,0.0382212668340248,-0.0549588131091443,-0.0060906693950207,0.00947839213520183,-0.00792684524210059,-0.00507204903976945,0.0392236410820713,0.0399589027620778,0.00131749007578263,-0.0366479006817444,0.001325629930059,0.0326012213751632,-0.0109067295532816,0.00330041629079921,0.00824439883151589,-0.000149291554613355,0.022762550221256,-0.00291932808626648,-0.00880331050688261,-0.000232735509103437,0.0186257450472985,0.0104536173177681,-0.000474548787972095,0.0239069959429023,-0.0133523111107372,-0.0146094734995574,0.023495821858215
"nHintKC",0.0118958757562167,-0.0371704716874268,0.570649449619841,-0.230298429464946,0.455836737879612,0.295095116734946,0.181872155113702,-0.0486917992840109,0.0800668479320751,-0.323970448451011,-0.0739471150990604,0.28794933583824,-0.106638520562101,0.0785298289850804,0.0198480762833108,-0.0466035477432166,0.0307824327650284,0.0541935621298073,0.0619588461979533,0.0106080825051322,-0.0976928850760208,0.0378448364954862,0.112535093925853,0.0357486338542349,-0.0620027712521106,0.000173620305719616,0.00496529118683407,-0.00802079532396085,-0.00280228088904355,0.0326237314115083,0.0395267367870117,-0.000273888364491445,-0.0351651068287618,-0.00283612083417885,0.023063266239219,-0.00569373337792199,-0.00619761008280967,0.0147412344555085,0.00346768529582639,0.0104771359054083,-0.00727202233863997,-0.012134486610996,-0.00932541993191,0.0301242021896927,0.0162296096979942,-0.0110216018954679,0.0100609104627394,-0.00830299460739115,-0.00251649267716839,0.0266031768180778
"nHintSessionKC",0.0121347621328843,-0.0360051130254658,0.566913711795989,-0.229973993505749,0.453775429123552,0.294386142688745,0.183283619784371,-0.0493470698755167,0.0795828604378262,-0.327440828429601,-0.0767231404076563,0.290204916638492,-0.108702827182187,0.0748669161951675,0.0201003816715967,-0.0478885500028743,0.031554316221505,0.0540844331815788,0.0618896515644229,0.0106905675213988,-0.0981294559304929,0.0379979259680644,0.115487990164102,0.0369914767146182,-0.0639372831990513,-0.000801063636262678,0.0046775433409014,-0.0081205641877866,-0.00355048712292586,0.0329256707454768,0.0396256599639586,0.000816805169774108,-0.0353376195774087,-0.00325498984271878,0.0243848080538812,-0.00731616592455064,-0.00726722719880141,0.0147024679345741,0.00450743890412403,0.010631593146167,-0.00703416120406293,-0.0133150503596289,-0.0103218522703118,0.0318101396830371,0.0167503711354183,-0.011646608380261,0.00892856797488202,-0.00971284043167165,-0.000505856737015738,0.0268479481781153
"nTotalHintProblem",0.00842433480883424,-0.0541763098419697,0.485663499082666,-0.168324658647368,0.409259064576467,0.171713198829699,0.0827026102353964,-0.0235477914654782,0.066784861251373,-0.137475803876084,-0.00545383606567282,0.154992454348824,0.0173333008454027,0.0870822220842371,-0.0325948216362823,-0.0508493047670609,-0.0177950680305385,0.006289105592866,0.00615254790444218,-0.00760447801156563,-0.0215708839831279,-0.00346877162454529,0.103762830783236,0.0087505698677315,-0.0446934603463977,-0.0578449504257752,0.00835658580391685,0.0102035981347028,0.0193826477218034,0.0139988489274554,0.0364927676283003,-0.000805634209884795,-0.0451723632859365,0.0447352689629434,-0.00528140328403436,-0.00465169327486013,0.0623788884294427,-0.013883836121819,-0.000590795285891269,0.0399291700463506,-0.0103545212967707,0.00643971420412604,0.0356605826826919,-0.046356027774713,-0.0133054122789893,0.0400932556736312,0.00722174075429332,-0.00157554397175312,-0.037979036726993,0.0235853245941429
"AvgTimeOnStepWithHint",0.119754330682072,-0.0934068119545485,0.0850065811224556,0.186568655212956,0.0131741754996785,-0.0119583322847126,-0.0327896044661708,0.19381321058878,-0.0108223606078369,0.138323231953835,0.146220631299298,-0.114348100563521,0.0109409631015841,0.28040155880227,0.0606650724335523,0.0636192988315431,-0.00243893019018557,-0.0689857506863258,-0.024380068582334,0.232861569040055,-0.278800444845782,-0.115840589661565,0.166243850813736,-0.104174753318048,0.417054792212416,0.31020642068137,0.156804827550794,-0.176650645241296,0.0249677259153205,-0.0126135143235591,-0.0375742251405678,-0.0168136784222163,0.0813860031001108,0.0164313529705658,-0.0083633103905293,-0.00312014508448694,-0.0636301078092197,-0.0563707890859093,0.0715218454228069,0.00485968150417,-0.157121893137944,-0.0998702873839032,-0.0387170874442683,0.0831673165891959,0.0473427143180983,-0.00578597797311474,0.0355346914398535,0.00930728989486722,0.0600710963965789,0.033522912026105
"AvgTimeOnStepWithHintKC",0.0160319313873798,0.00963305877703141,-0.010166222830004,0.0165463698061323,0.0136439041885585,0.0126618309658428,-0.0546650310213495,0.0197367349714006,0.00490699013502884,-0.0101122500478892,0.0291855276133718,0.0336900556670455,-0.0127450532324131,0.145482265424302,-0.00347390140534403,0.0239868641939794,-0.00545646927031881,0.0111071771539459,0.0573937723455552,0.0924724414141394,-0.0669290487715134,0.0344818334912966,-0.0258846621303515,-0.0873878846935812,0.298768915385582,0.219201469933685,0.0977954528331328,0.264091341117559,-0.0361891079190055,0.311896242511938,0.394668608991338,-0.0655024218878348,-0.134732128068828,-0.0614739738332353,-0.141723790345278,0.0602206666401428,0.141720063589114,-0.0748224394761354,0.0540154796687833,-0.332735256700335,0.0969339626767111,0.347784226056227,0.112166392516636,-0.12179483493028,-0.026762674431899,0.0220111577666407,0.00324109416054712,0.0921822361700161,0.194556092664988,0.0270154938052117
"durationSinceLastHint",0.0615882817053831,-0.0121578554122628,0.019725743284094,0.0103321194756109,0.0119554763853144,-0.0234372198424634,-0.00529579218551419,0.00477006923734299,-0.0567760101912913,0.106128389013811,0.108802823533611,-0.0122786141218336,-0.0214115617338509,0.227775760843973,0.153119925347495,0.148821360000923,0.0564753088457552,0.0150233252926934,0.201622190333174,-0.013259740017041,-0.15375022565401,0.138982845839595,-0.232039311696832,0.0298988031569758,0.11290285145494,0.0847384814529396,-0.0438634405588154,0.222576433614941,0.0703415351490245,0.183984613000789,-0.124359291419878,0.26507924887195,0.00880499100487959,0.044551229495179,0.204180318391736,-0.113779815150911,-0.213809581495466,0.0329365931071542,0.137094314667332,0.138490013581831,-0.0241791126293862,-0.338913531241844,-0.145652410685535,0.212865406110133,0.0518246200766221,0.0276253687967305,-0.138058571450017,-0.0734051863015263,0.129161926761488,0.071782978215828
"durationSinceLastHintKC",0.0368397256421744,-0.00716085044831639,0.0573946358892187,0.04161217338011,0.0158592239033116,-0.00112113526074769,-0.0628506163887334,0.0544056352507618,-0.0268084851109145,0.0536535914566401,0.0566976875806696,-0.0367774824576646,0.00818255518917604,0.114855381947617,0.0148783797200589,0.0576795994613608,0.00092873080596023,-0.000755048538704651,0.0963472398005257,0.00523193576754469,-0.0382801798799212,0.102202392741084,-0.265227279739272,-0.0391006181440079,0.135417605688025,0.0540965278667794,-0.0297217291632864,0.513845785903583,0.00434357199604532,0.325989361689497,0.170708953635489,0.133090279731707,-0.289227288318092,-0.0777490843500973,0.178631827714803,-0.0673093206607595,-0.0537193859354054,0.147958720559392,-0.101072178261071,0.176949626375911,-0.0312555622572624,0.0370828085859879,0.0543296125209413,-0.00748865664952105,0.0303019524492536,0.0409872214936295,0.0419086790960078,-0.0957219957460501,-0.118935407676377,-0.202745467225537
"stepsSinceLastHint",0.368295566714392,0.495267359907858,-0.134588668960059,-0.0124594376225418,-0.0799860526251623,0.029019565260547,0.0916061153591157,-0.0339515505861401,0.000766260680325113,0.00452148745501965,-0.0837760451237328,-0.0436705730616542,0.0152666523775385,-0.0208769923289354,0.148389890997334,0.101454639152985,0.0510225660284671,0.01311178638619,0.118615210498926,-0.0867729103784282,0.0242398214903995,0.0760472630976685,-0.2116951504897,0.0224466220274151,-0.164942649450334,-0.0733460779474516,-0.0983312811912815,0.121099372823631,0.0691297654963772,0.0232882339160696,-0.0413420642582311,0.0574380455188587,0.0751139057874411,-0.0146911908413218,-0.148283412735403,-0.024817182615202,-0.0426745263321844,0.0427954506203387,0.0600705689663377,-0.0764773079448485,0.0899215399072627,-0.00593824007484807,-0.0146325218030028,0.0875514646396095,0.0356858300253374,-0.0415641135430837,-0.00806639968367205,0.0806760058971106,0.113015068185154,0.0902234719606229
"stepsSinceLastHintKC",0.6400522436427,0.666609875563585,0.0395212844272886,0.0171397391425078,-0.144191194434711,-0.00125588293977069,-0.039420878637452,-0.00736186893307824,-0.0683261093510118,0.0644403499509602,-0.0417165544274108,-0.13844722587111,0.0388838534110128,0.0297498370041073,0.0834422763301684,0.122814960928734,0.0241222347934019,0.00816506011311211,0.0438535332097836,-0.00214300435532757,-0.00712107066251358,0.0151087856734537,-0.0422236121212576,0.000683723747566003,-0.00791913748911619,0.0161974922561226,-0.0119569258058579,-0.0314255739440883,0.00351974845533905,-0.0202505357674864,-0.0378755452239817,-0.00983416283775153,0.0475184122635668,0.0195442115240938,-0.0229873897926792,-0.0269835987107328,-0.01621733291232,0.0215819217065228,0.00458847766859552,-0.00751664061246592,0.0123904478380884,0.0146632969522597,-0.00821251880583812,-0.0071173640100047,0.0220906062524337,-0.0351405717275842,-0.0152236959054589,0.0142991510114447,0.00506822718428031,-0.0390646642980122
"totalTimeStepsHint",0.164991573297286,-0.0267465980745091,0.27215186640179,0.134329994765504,0.111397622981715,0.0381363771547425,-0.0513950168182073,0.202001380357099,-0.0550287532009294,0.131735089343924,0.135219090576177,-0.136056157240142,0.00388181672042411,0.265996917912624,-0.015941142740287,0.0270861603570939,-0.0306722409896715,-0.0698178393357745,-0.0674996765931599,0.252143555455373,-0.235707363452677,-0.102910924834692,0.196172224320264,-0.0834441707668697,0.391587309068799,0.275099024330792,0.18427521444006,-0.229081826139769,-0.0129879124519793,-0.0268753190344987,0.00740764567579695,-0.0666589373366566,0.0606778141337406,0.0291368247521414,0.0361188909759626,0.0136423324992143,0.00337451022630338,-0.0684189067537355,0.0325952215393757,0.0859068286753603,-0.127850728095628,-0.0478017322081232,0.0315249726295864,-0.00115439799977102,0.00660099012043634,0.00736173823131887,0.0420160203828396,-0.0226714162970041,-0.100544865196612,-0.0425635026230394
"totalStepsHint",0.0428343922723353,-0.0322509860628962,0.608957266321963,-0.226828244898438,0.473047583168438,0.299647957735001,0.158363992241119,-0.0341965765898407,0.0746295776362725,-0.283699808658723,-0.0487307972386212,0.251088559578454,-0.0838496776503914,0.0913995604062392,-0.000919971089470844,-0.0478747179687187,0.0215609755990466,0.0420999240997127,0.0384517157861586,0.0283530399015645,-0.0870225916169485,0.0264749446021826,0.140231487594037,0.0349967574722954,-0.0402731458228072,0.0137702874475566,0.0251066234654851,-0.0217112131165587,-0.00862163091359977,0.0354836990239,0.0412613374396771,-0.00680963550798901,-0.0357244155501052,0.00410387014821213,0.041375827694447,-0.0114829098181699,0.00276656400627455,0.00704182365582661,-0.00328379995369503,0.0279423739561678,-0.00833612861720852,-0.0107435952076316,-0.00248045917588322,0.0142043761061195,0.0116477175032453,-0.00508160127445604,0.0207085557045016,-0.0174718839738383,-0.0252104438995878,0.0165539728193567
"nKCs",0.646466402326073,0.681072195256496,0.226891290359574,-0.0434214943703984,-0.00996388721640305,0.08380043092951,-0.00412208632977793,-0.00435033676817746,-0.0384302835509645,0.0131611429301573,-0.039338299824292,-0.0949741286765358,0.0310528366277224,0.057197026553438,0.0752916279845856,0.104460620557285,0.0285183140315207,0.00553597287446217,0.0369991894473556,0.0099641918825266,-0.0112339407267227,0.0320226604422566,-0.00749129064889554,0.0124939039096137,-0.0129232989432882,0.00390637902997215,-0.0130495733360473,-0.0215636702927826,0.00242325864512139,0.00847852803223199,-0.0138360627436024,-0.0138719890408272,0.0283461512650345,0.0193828856080133,-0.0168919713365306,-0.0248103925928569,-0.00962298929097124,0.0173911315428423,-0.00552456386910447,-0.00407978401777811,0.018161350093863,0.0245727624031534,0.00168283680639671,-0.0108110610400162,0.0166536999667005,-0.0227393671187492,0.00915722523143975,0.0116687093428295,-0.00986684368661811,-0.0297068145999302
"nKCsAsPS",0.783986371011419,0.119311342871556,0.126546549837449,-0.113270055223107,-0.0712408388194252,-0.0878301522993003,0.48627377366202,0.0659078556955232,-0.0688562340220688,0.0741117809447948,-0.0125251052371504,-0.0530503089253697,0.0176353237664982,0.0555327461717619,0.0208247939658518,0.0362518666034958,0.0121195272534622,0.00195722653843737,0.0454729008756624,0.0144325015550701,0.00192864226595759,0.021839635474291,0.0169847748045913,-0.00993714886531653,-0.00357992987745385,-0.000348174788864061,-0.0166304553387272,-0.0215297884114891,0.0301700964557642,0.063028343235703,-0.0348854469363725,-0.00286621962843566,0.0301164638880392,0.00535429281586087,-0.0298116854949592,-0.0298588752538231,-0.0133243569686121,0.0309553645473836,-0.00355303265338521,-0.00129628502593133,0.0400768256331466,0.00510153353775857,-0.00275161546432926,-0.0362135676904054,0.0294281223524147,-0.00198195408422208,0.0374473968647365,0.0305457216024129,-0.0287274473687951,0.0213240115209233
"nKCsSession",0.534700874832249,0.650069617925596,0.182484537074046,-0.0722754003672542,0.0544060489985714,0.15393591087882,0.0307273130007975,-0.00564923791217824,-0.0311381729995048,-0.0691107829725076,-0.1570920859253,-0.146093736507934,0.0351037035183407,-0.29757172376576,-0.0841544067080095,-0.0349931156534756,-0.000371408579812314,-0.0567105196087549,-0.125123291821345,0.055423742558468,0.0859096840339481,-0.0507713093759126,0.00481093900674869,-0.00703361131966426,0.0875061939520812,0.0457650765253085,0.016665381339459,0.0447785157116233,-0.00952077501327445,0.0107960517096616,-0.00288797943815648,0.0328908619297138,0.018573566098035,-0.0053048195160948,0.00729805097551581,-0.0356453033253759,-0.00324542690148102,-0.0337804780787806,0.0265878097243034,0.00606291621258143,-0.0240225088096167,-0.00656189585778443,0.00189944879425853,0.0131919827068937,-0.014812446668975,0.00822648993561857,-0.0190651513167461,-0.0335462132312176,0.0628891126113162,-0.0200139909033838
"nKCsSessionPS",0.723832234493466,0.12762672821346,0.112013397744018,-0.133042061434585,-0.0165200627672798,-0.0231023791900255,0.481892134945642,0.0521614170538951,-0.0693105088297957,-0.00117098536569222,-0.120849166958987,-0.0964633740266431,0.0238249280227076,-0.224513478067674,-0.101133822631661,-0.0695953999173978,-0.0098620629997145,-0.0552203479915095,-0.10302384823889,0.0510899433134329,0.0802692881355611,-0.0411290086270045,0.0248376065290298,-0.020327378268397,0.0787712226347664,0.033653119429692,0.00873273717912658,0.042772149751288,0.0221642329996325,0.0525278327488367,-0.0322649064412072,0.073047929285008,0.0279496128097283,-0.0197042726629806,-0.00803533839481287,-0.0395716501526511,0.00425285947155515,-0.0108584796248264,0.0120114651557757,-0.00811740269637132,0.00975964398443637,-0.00596916914161982,0.00419960317717333,-0.0219062256007166,0.0142863002338339,0.0217065566786822,0.0254368514089134,-0.00549939428551299,0.0298029514089663,0.0210728617098862
"nPrincipleInProblem",0.0955410706350399,0.178061160211931,-0.306317597669692,0.145304330356505,0.758525602127601,-0.31117738779639,0.0337039713354068,-0.00636612815531164,-0.114522317384774,0.0654166039907522,-0.178575449110192,-0.0813586818670605,0.107462442037021,0.0120969188203625,0.0736867664676124,0.0204809298044908,-0.236790061813668,0.0580814533970057,0.0936390030593546,-0.0186723863734987,-0.0280761118724528,-0.0476811758611656,0.0336714669238897,-0.0174349548813803,0.0130946558227853,-0.0684925355318861,0.0173840275939617,0.0130498025341168,-0.00887969050680832,0.00277419260499682,-0.00652313184346995,-0.00901791842137445,-0.00934897317302329,0.0266323063858395,-0.00314919967271915,-0.0204730103598955,-0.00698700529955978,0.00181204514941375,-0.00636240262202691,0.0195030849326023,-0.0161974235165206,0.0376948774538025,0.0177904441348429,0.0281252514911216,0.000277074794436947,-0.000717387669157474,-0.00729389206170378,-0.0100081078343035,-0.00574775724835683,0.00410628032384032
"quantitativeDegree",-0.256900734718267,0.599410447873763,-0.0434220671919707,0.0595299764031421,0.217507086069091,0.180008298582572,0.00892948676256915,0.0135501295572625,-0.102498660105415,0.0553441359861079,-0.130274676992381,-0.161575240208603,0.144762172076888,0.0800123905508408,0.0578485517028308,0.0357297725992411,0.0492535330358179,-0.0269883695908567,-0.0554042163319146,0.0392162264560471,0.00456140004516986,-0.00867599910194628,0.0554956226570161,0.0388071164204783,-0.0908908699431151,-0.0426159956882749,-0.0566663220526959,-0.0777562623000427,-0.0457403839912249,0.0589766573849548,0.04714964095308,-0.0205887514255891,0.094656294925642,0.0882427260870008,-0.0906918382854636,-0.059578684452044,-0.10474163516957,0.00524325926418278,-0.0100774371307139,-0.0525306828648687,-0.0370401737773692,0.133163565517276,-0.00255493648398652,0.0851500672390403,-0.0565488164964368,-0.107101290054932,-0.125169198434841,0.00989190237915923,0.0913172266586637,-0.032346527982074
"nTutorConceptsSession",0.459973251939121,0.42066252907485,0.537652267009612,-0.157847360771243,0.296075174802454,0.168867274082352,0.0407111675343939,-0.00608069300730075,0.0137461690171519,-0.0530306266482735,-0.0847663124847315,-0.0891701629455269,0.0625094304171661,-0.17328116952122,-0.0968357401947219,-0.0538844411846954,0.000237767533471895,-0.0682489725028711,-0.151000822295863,0.0551514839624819,0.0713737574911203,-0.00823430596968816,0.0591967993429597,0.0222491241675786,0.0614167059558727,0.0115163631742748,0.0137299434963591,0.0525645906057467,-0.0134985610013302,0.0289598255214258,-0.00658093918424029,0.0281185231235352,0.00462318147593959,-0.00314138941498916,0.0299858009917564,-0.0245983417575481,0.0100952503762465,-0.0241076216826558,0.0181619721086784,0.0261147278046776,-0.00115876923396395,-0.0120956680921567,0.0158899977949074,0.0130356587134431,-0.0129704149406381,0.0349743361374613,0.0067012921058791,-0.0328097735009219,0.0308505739038124,-0.0288748679220821
"tutAverageConcepts",-0.0207738196584667,-0.230118381273245,0.617748467752119,-0.0792410900083005,0.348962527586305,0.0807524990512232,-0.0971970759937303,0.0776834311469844,0.223608136411084,0.322244516969854,0.247753734367375,-0.107438589854329,0.21898249552686,0.114873089888037,-0.129998908876848,-0.0124402652828423,-0.0338120087624462,-0.0826685462077892,-0.155222419275875,-0.0153050287401706,0.103993309495165,-0.057328355200479,0.0470517858362003,-0.00450716980497456,-0.0478667024505451,-0.0309765535029716,-0.0113526685982296,0.0682810325925891,0.00918096489366932,-0.00537050577626101,-0.0229861590066387,0.0305529951165778,-0.00517622172464472,-0.0120790409545219,-0.00807856502095366,-0.0355227435506719,-0.0082666541936852,0.00382110676726633,-0.00166743574618791,0.00191646112683947,0.0334874556230253,-0.00997259878503385,-0.0173886403428537,-0.00402686807852048,0.0117578652843702,-0.000893591442150317,0.00693894692211844,0.0159875423903549,0.0326771713869787,0.0243422797531367
"tutAverageConceptsSession",0.0103149257423625,-0.198635258363553,0.629347035904038,-0.0732297091376043,0.315611955006328,0.0243627450848938,-0.126982178593577,0.0681451908953348,0.233125621584735,0.326534791410965,0.257942336725634,-0.0845611521925885,0.22850625614866,0.174545902768611,-0.109494543596851,0.0134806065412207,-0.0237280791826638,-0.0686649006275698,-0.147520018709122,-0.0371191547423328,0.0922499713416201,-0.0280698438642029,0.0334151484661609,0.000260796463582128,-0.0888946798085502,-0.0676386753978562,-0.0367817942120063,0.0618754846469645,0.0128674895447535,-0.0139019707934994,0.00647399186275275,-0.00721618573219704,-0.0251500555580849,0.00367329968169796,-0.0138680438893978,-0.0191602196984321,0.00845061464154124,0.0272833673046568,-0.0240127849577204,-0.0213610430320501,0.0514975396403076,0.0139085627635013,-0.0111718490218455,-0.0337847094677278,0.0336427928032873,0.00346776170921539,0.0125003827139508,0.0282790357811786,-0.0136034736247045,0.0112795502592353
"tutConceptsToWords",0.267323461252197,0.0348119415849351,0.264904723632567,-0.0318006738656724,0.227151036652523,-0.0496418434213366,0.0866416931366757,0.132012881239138,0.25690436121924,0.395128825526988,0.335939299156679,-0.110430606808092,0.208369672220409,0.15559385430927,-0.0989708182639428,-0.0417017094322233,-0.0097161704618862,-0.1286893442005,-0.279038028199921,0.0257142864576794,0.0482740436420256,-0.036212204164158,0.328856734267613,0.0242847497411561,-0.115221577776468,-0.0603746569800989,-0.0667920931086204,0.0833952012571774,-0.0547903530692013,-0.0139427399592982,0.00913663666682486,0.0554092279548375,-0.0434096384612874,-0.0693195839863969,0.0235282443556944,-0.0511325827561182,-0.105745560818134,0.0195075636574011,-0.0285187965403447,-0.0217665390770644,0.0688592547977075,0.0175317976753321,-0.0572971864041072,0.0644507995738134,0.00270028912268404,-0.025145271847536,-0.0901218453086105,0.0016222167501672,0.0785871019370325,-0.0201506824099479
"tutConceptsToWordsSession",0.28664823445733,0.051707663857807,0.290405006603297,-0.0153041867404129,0.196712623621238,-0.127459823439289,0.0354844805119656,0.116627178110719,0.259253864509949,0.393421517950452,0.338827743145634,-0.0741524067827676,0.21361015407041,0.245182582417535,-0.0530318769393043,-0.0140368326635082,0.0013551095383458,-0.104807724476766,-0.243342594259655,0.000956281029848338,0.0303098228857052,-0.00242050227633257,0.28772141088435,0.0268582059113535,-0.154362687899593,-0.0939211736860977,-0.0860094305581202,0.0764531607807171,-0.0489077992448245,-0.00459668874985754,0.0415947582709156,0.00789286908996817,-0.0510181429610301,-0.0550957200450164,0.0191805843273316,-0.0346135472161894,-0.0844682436335137,0.0342282947893479,-0.0444813647312967,-0.0569892650380569,0.0945054584662492,0.044075997931261,-0.0428453118453987,0.0188314161165852,0.0251511315169827,-0.0244901803803678,-0.0869135185669719,0.0189601904744388,0.034499274548433,-0.0215147444663933
"tutAverageWords",-0.219615120522993,-0.359753842842914,0.662770848041339,-0.0744558666290351,0.295584985693056,0.13057691146283,-0.206202579688809,0.00966156711391615,0.10809452602757,0.166970923090097,0.0753491683673261,-0.0669776842741138,0.128975859746038,0.0170950561481821,-0.0967673347143591,0.0203831048169478,-0.0374358804573631,-0.00323836236874685,0.0254356722423501,-0.04391489843031,0.105968979911396,-0.0565703970012759,-0.217148179589242,-0.0235709198166574,0.0298739730427017,0.0215945890895404,0.0445218724744965,0.0207581830913395,0.0592021066929665,0.00948594285840488,-0.0499332734303916,0.00418700287656587,0.0408211880874088,0.035105436377749,-0.0332224919655728,-0.00357720942197208,0.0725056249306896,-0.0114554333482372,0.0284896757816106,0.0191097079442049,-0.0147752776293839,-0.037680066789537,0.017310880029612,-0.0582746073651356,0.00783757183796513,0.016276515601001,0.0742572733401671,0.013807210150427,-0.0152536571549529,0.0416512484211469
"tutAverageWordsSession",-0.203972676708571,-0.339202269249831,0.679840986383266,-0.0824465293848123,0.275845215333931,0.116067230305874,-0.216722302898224,0.00635327538054327,0.12587340187289,0.16968635311051,0.0807534878015562,-0.0589416545817178,0.144090773543125,0.0267410243229004,-0.107540225905026,0.0328453659043161,-0.0351728327295632,0.00154858474231373,0.00667697914098073,-0.0563892352254652,0.104218573543211,-0.0509133279405107,-0.215266241466028,-0.0183976564774244,0.000967731438878372,-0.00248147331147029,0.0287029608529629,0.0162944835775501,0.0597019543078153,-0.00758376890611345,-0.0342162521337699,-0.0134128315065819,0.0243784864908149,0.0457350626613214,-0.0367877244146774,0.0076567859341372,0.0829144279518082,0.00653910267809982,0.0144606675087722,0.00975785731450876,-0.0125837146191246,-0.0247997572914998,0.0192164014146947,-0.0674877734001209,0.0230855104993114,0.0204239270215506,0.0784160704709815,0.0216730095936974,-0.0419026847334473,0.0312876588729046
"tutAverageWordsPS",0.125204164101554,-0.328467620008153,0.510800998005739,-0.054872936337166,0.375638283558931,0.233049569154164,-0.420001432731615,-0.0144583874035704,0.148086418666037,0.119891997350547,0.0981494193059605,-0.111419114967109,0.115314049469193,-0.0395023214848645,-0.0653804012138222,0.0314979594728528,-0.0226357145856747,0.0130029690092729,0.0505513131554397,-0.0349157059892271,0.064388973416178,-0.0113351623539058,-0.135870124184038,0.0549317240412972,-0.0364019784247185,0.0227606518582238,0.036916461905063,-1.66215212359204e-07,0.0652559055674955,0.0932650116500808,-0.0363167999783467,0.00819996802354096,0.0684285389382552,0.0939514246704378,-0.0328539513585112,0.0077658859388459,0.100434984180245,-0.0350976050483904,0.0582250380763586,0.0486346121631353,-0.0680920014979692,-0.0364521957460983,0.0511417429490359,-0.0498806612146312,-0.044589846902042,0.0168668809687399,0.0514406544321256,0.00295999438288841,-0.0158057348371722,0.0356858886953029
"tutAverageWordsSessionPS",0.135832378042979,-0.321056306628792,0.52505625733644,-0.0638948275117953,0.364029278999263,0.213591785308679,-0.410719388659428,-0.0107227499226234,0.159700014700594,0.118504101447088,0.0965383955661842,-0.107797308775274,0.131370577600021,-0.0520823909005544,-0.0874572101289053,0.0300032989198391,-0.030359343532075,0.0111997361237574,0.0254432469863825,-0.0412768790298019,0.0813995781091096,-0.0184708424572371,-0.148043889882419,0.0465946139824598,-0.0432037470481853,0.00624436704203315,0.033397127003017,-0.0158438451880718,0.0690698875921409,0.0878754761890871,0.00317715317534991,-0.0409940801992008,0.0269148670692144,0.0940316952091942,-0.0495462497876197,0.00510462428921061,0.0998351642693149,0.00841065302252161,0.0373454994021959,0.0506299556802417,-0.06746219447184,-0.0419786863332436,0.043212769306804,-0.035729232554767,-0.0377985463003281,0.0214832111974203,0.0520246302814204,0.00678357050240333,-0.0353156507350192,0.0364733105557245
"nDistinctPrincipleInSession",0.557041388845177,0.591334276343459,0.147916365626609,-0.0560158691187622,0.0640336522074588,0.0777428980851094,0.00700556944721497,-0.00446341857083057,-0.100031897191598,0.0505728818231756,0.0254439194090363,0.0175741509058535,-0.0641006211665498,-0.354074745985817,-0.104067427349207,-0.0806996571220751,-0.00273144906046492,-0.0596453266992571,-0.11282869178932,0.0377857925351483,0.0802435695400503,-0.0141224236886661,0.0293070183756048,-0.0329839851186649,0.102279207102453,0.0688328345669182,-0.00162155583004125,0.0378630508265967,0.0127855797526319,0.0276909893633866,-0.0395974484965034,0.0328951166825368,0.00790395616161427,-0.0760456496516281,-0.0218782940918432,0.0356314112075134,0.0245000592849592,-0.0404101411422844,0.0159876976202569,-0.0216131724784692,-0.0468327949841834,-0.0667703022222542,-0.0204309562715911,0.00386027204544635,-0.0493677970445925,0.0174732151414153,-0.0243067765129852,-0.036393986144419,0.065488390584477,-0.0193275939989359
"nPrincipleInSession",0.539104419059872,0.638293720166391,0.165730324257939,-0.0725836018596418,0.0718375642022256,0.160060023054058,0.0587978283533019,0.00226372984484329,-0.0315952221808772,-0.0677650159634585,-0.175452038728648,-0.158743300476059,0.0436603086919153,-0.292056980998749,-0.0800781198096954,-0.035698237896455,-0.00186151500364416,-0.0568239191444535,-0.126669643140419,0.0623457309231279,0.0875857196468105,-0.0537876373482648,0.00957380366629671,-0.0048918397950368,0.0869248323777455,0.0472763191650736,0.0188187121661261,0.0493630483087135,-0.0102504368617318,0.0134050276631885,-0.00170483433883522,0.0374571978486974,0.017972608095359,-0.00715052874070583,0.00858312132859436,-0.0398389616168823,-0.00592641967468469,-0.0345283326372963,0.0252055892127203,0.00822222114853378,-0.0190990075215922,-0.00944049045405153,7.72414294281814e-05,0.0118473446930462,-0.0138234610563278,0.0123852324361233,-0.0243714477090509,-0.0361041002228755,0.0642883909247586,-0.0164405342935172
"problemDifficuly",0.410385916371945,0.474473832898539,0.0187293326775872,0.0792997367973344,0.492782663417396,-0.479691886380364,-0.0553528025907251,-0.046103971053412,-0.0480142684296455,0.0523336286180187,-0.0301923642464658,0.00608096215597608,0.0153908826027185,-0.0327679197448529,0.126518307202063,-0.0445121803710248,-0.177233160774224,-0.0442999755124009,0.119705270917725,-0.0308791240083003,-0.0293896855331502,-0.0300815197205518,0.0260921186424289,-0.0214534292318309,0.0595992799863085,-0.126239218034059,0.0316738767293811,-0.00448854621661479,-0.0161691090338826,0.01097748868892,-0.0138696281011424,-0.00697416550972425,-0.00855062612854644,0.0266067944222703,-0.0101036126002883,-0.00766728372672573,0.00105139664379308,0.000969984850010564,-0.00400246876807706,0.00764648787763824,-0.00605501853788995,0.0181935715435885,0.012895771255657,0.0163400965656475,0.00160661344758177,-0.00617962363096067,0.0136892459488877,0.000702483588732009,-0.00657172112432809,-0.0177682892914296
"pctCorrect",0.732361228070131,-0.447113839081168,-0.232654780828379,0.0285904947979524,0.0476546959060363,0.0793553433829645,-0.232373486667506,-0.0523376777393563,0.224611800154666,-0.0694886232302262,0.0321410389799845,-0.112713491497748,-0.0574239272420649,-0.109452136492663,0.0837398266375506,0.015132832146973,0.000705569781557862,0.0342757683057641,0.0509037513978652,-0.00656401789085312,-0.0525757607856354,0.00630612519865186,0.0928899365075891,0.0221593795553406,-0.034098028607664,0.00750387311102977,-0.0235520922859792,-0.0570763214761584,0.0246726337702265,0.0900091488925813,-0.0082707131273726,0.0621444943909888,0.0166778670157991,0.004373556354122,0.0281810820971099,-0.0136379693242743,-0.019558922778751,-0.0104673522828982,0.0100709902195122,0.00184219786318119,0.0139964413841411,0.0317509759750394,0.0173950556051185,-0.0156623621827087,0.00479743333288007,0.0042807838322905,0.0208179032756166,0.00189357920128396,-3.83401077801816e-05,0.0153086963881837
"pctOverallCorrect",0.011388172553459,0.608094860796351,-0.522579882391567,0.0688771201960915,-0.200053247029011,-0.014988372707851,-0.0540518742839887,-0.0779757254183841,-0.0953159092256744,-0.147140135307359,-0.0470559041083211,0.183807394061672,-0.0023736019770047,0.135597020379612,-0.0588634478237545,-0.0379275140599331,0.00148555163191945,-0.0285530198338351,-0.174969927895497,0.0861596784745256,-0.00233764103619963,0.0393106760603195,0.270317710497452,0.0918684927705349,-0.0833507590787945,-0.0662393029105419,-0.0215276037517147,0.0357496493100465,0.0148764926688307,0.0981997113935087,0.03764982454092,-0.0158058235274664,-0.0395591953011821,0.0394646653869113,0.00913436502131139,-0.0156262309171596,0.0195306097791707,0.0247682101069539,0.0178704162688235,0.025243563949917,-0.0117319297428576,-0.0307031322261128,0.00818553456434908,0.0198510011865911,0.0239853501100975,0.00949617867679236,0.0421243761212446,0.00315116168023279,0.00864135898945488,0.0275909774271212
"nCorrectKC",0.78474315035865,0.136807288208046,0.0108927751389609,-0.0851274627758912,-0.149455310506777,-0.130975650400358,0.466557210826613,0.0753664014095431,-0.0558360231270972,0.100791524712285,-0.00303810191604177,-0.0631655622087464,0.0501674451646897,0.0522668231830478,-0.00703991985821763,0.02709897512289,0.00785617460859507,-0.00148579389064293,0.0367479819408788,0.0144951205716117,0.0103488809263592,0.017310399137399,0.0223843659167472,-0.0090503630727538,-0.00506339320517137,-0.00382281072602569,-0.0126113700058389,-0.0194513338012329,0.0355320348511584,0.0666655847289132,-0.0302646363705854,-0.00292944014616501,0.0232572189904916,0.00994411328221351,-0.025408186294336,-0.0305576214869596,-0.000146433135766471,0.0284493846606692,-0.00197771493147995,0.00467042266596665,0.0322098994243336,0.00465756466982691,0.00212443557687677,-0.0391630635338122,0.030474564923275,0.00387283049013045,0.0475472456217993,0.0273789203286055,-0.035338381326247,0.0303856189751103
"nIncorrectKC",0.26568961623616,-0.0515396182791408,0.655536742382933,-0.187887280386478,0.389379844563108,0.198098821350413,0.271614001649953,-0.0273791685503816,-0.0925857604365305,-0.11568627811783,-0.0545109910037661,0.0352773077479988,-0.166083376685544,0.0363857348815347,0.154615314514208,0.0609050689077227,0.0267295156876114,0.0188926998968915,0.0618124401132905,0.0046334742112895,-0.0438938565701461,0.0314802443052211,-0.022730151301836,-0.00811101462512176,0.00661852295155702,0.0182669327282242,-0.0269887043242834,-0.0184048715964663,-0.0179951044532274,0.00243482229040303,-0.0364526352046395,-0.000651446769659293,0.0466571940619264,-0.0224460233055421,-0.0335572971885018,-0.00657401493289013,-0.0743171543084078,0.0239096376867024,-0.00955835412982481,-0.0320199113896931,0.0554159359576142,0.00410429360982792,-0.0267491305272648,0.00315022260250483,0.00458593208848985,-0.0316635213629477,-0.0405632521555895,0.0272655827860269,0.0251006820573767,-0.0406157032668864
"pctCorrectKC",0.72159046282392,-0.440846020714304,-0.204532891620029,0.0383008635487338,0.0476552229557267,0.0791389636380007,-0.282735839092021,-0.0427525574283312,0.204671356270839,-0.0277428774437379,0.0367415949068646,-0.137844806145977,-0.0202101104981336,-0.119933271260895,0.0599505185244741,0.00921521767179615,-0.000838751222193709,0.0266010192941272,0.0590013984429826,-0.0100288763103079,-0.0521401364129466,0.0259303814123117,0.0907168674159663,0.0258237646495951,-0.027541024945666,0.00703288422609421,-0.0221305698413476,-0.0629985292017838,0.028412827069211,0.107052466597457,-0.0108808554370657,0.0603614250234624,0.0252953684445693,0.0122797354343059,0.0286985321419331,-0.0191439457118814,-0.0140564538561079,-0.0099979571442156,0.0128566398594086,0.0120368359459649,0.00563974909057674,0.0279019340674039,0.0234398086173349,-0.0111701735247963,-0.00103062639660014,0.00198452918468858,0.0376009116179106,-0.00572591190913868,-0.0123034535487055,0.025260538502392
"pctOverallCorrectKC",0.111668029389599,0.522152035918694,-0.505292410129893,0.0979435014530099,-0.221178030232352,-0.0447626100785919,-0.19749417649574,-0.0130854769066576,-0.114404703693486,0.0154520535109472,1.9952507263032e-05,0.094688304019551,0.137341583653478,0.101782445488456,-0.152155259493062,-0.0564395439969085,0.00687866008949199,-0.0556099083913129,-0.145252378771754,0.0610014889087222,-0.00790247331961194,0.111805906184822,0.234954839638497,0.111667578443916,-0.0550134417532212,-0.06291795300889,0.0112417704351974,0.0609980188903709,0.0292215185843563,0.120296174238941,0.0442110619993007,-0.0364681694542191,-0.0568328595073168,0.0628132697817464,0.0524965835939344,-0.0282953937545091,0.0832458144446435,0.0171546263636592,0.0171900490620352,0.0979760740384329,-0.0317132301098791,-0.0790228286780691,0.0369951746028236,0.0282332022487123,0.025781818787569,0.0357636904235958,0.13656710961279,-0.0351816776549404,-0.0628737526733437,0.0670619287570752
"nCorrectKCSession",0.728792398926441,0.145632411983734,-0.00730391978598706,-0.100405134680125,-0.100899149229342,-0.0709201322219499,0.460752715685354,0.0633584806050632,-0.0596244129976875,0.0334608959613833,-0.106626117577136,-0.111757053390978,0.0569208374199641,-0.215632389206728,-0.123068289622546,-0.073871764553291,-0.0151315857760921,-0.0583589680742723,-0.105995148233853,0.0493893564412032,0.0886693338394099,-0.0404645463014685,0.0269197324079391,-0.0218380397462142,0.0786374385279785,0.0308570503212082,0.012234375902819,0.0440789441015907,0.0277847214028153,0.0565866352306479,-0.0282198865215704,0.0708749251678677,0.0221649049704569,-0.0146827409707023,-0.00792915015690744,-0.0393219282343384,0.0152105472275525,-0.0118784135367705,0.0122006570741403,-0.00248147417658227,0.00551336201434745,-0.00450166175595105,0.00910848054287526,-0.0278882136214835,0.0145109872555915,0.024517074917417,0.0370291051526048,-0.00718641279306144,0.0199372894503583,0.0299775701136724
"nIncorrectKCSession",0.211645322329685,-0.0498713850226894,0.643925199965934,-0.209646829434372,0.424041405254082,0.235808029754169,0.265299088527985,-0.0399165567918574,-0.0719808513075055,-0.176642437462162,-0.111938874938714,0.0462675164792736,-0.160644631663788,-0.118677368359651,0.0785373447405897,-0.00101204625555753,0.0235916953606926,-0.00209805144875312,-0.0185943814014434,0.0253754633793036,-0.0164821918062861,-0.0168421638461526,-0.00246833818232213,0.00103593803749067,0.0264605206935281,0.0252443415906995,-0.0149636337499828,0.00734719324890623,-0.0213517800821786,-0.00346640861165494,-0.0311465622199209,0.0349660710708785,0.0385884409506541,-0.0320057805141823,-0.00317018807555222,-0.014221659571218,-0.0543773874899259,0.00163728319061788,0.00296812412695145,-0.0313406979701723,0.0248055417596363,-0.00942243196566261,-0.0236093532419654,0.023276073589799,0.00353196165868322,-0.0072002016261111,-0.050674085515743,0.00678629424402243,0.0599650320615083,-0.0384240165614092
"pctCorrectSession",0.718520101582734,-0.441873422656102,-0.218184150886506,0.0241221247356561,0.0479654717990948,0.0773167382743159,-0.214772172136212,-0.045850407638714,0.218547464060824,-0.0837308564322274,0.0160054092160613,-0.120412854563867,-0.0472400945524473,-0.143863779230641,0.0564165892151973,0.000512912525234169,-0.0205614134838608,0.0237799189951654,0.0213491378266878,-0.00760905921533251,-0.0104680767946586,-0.0175766075568238,0.0601488243808962,0.00389224084485562,-0.0126372634687815,0.011435749810752,-0.00587411564922017,-0.0995397704966155,0.033841058789668,0.118371605954575,0.0481699516485007,-0.021313936576563,-0.0343121392595929,-0.00777829707116873,-0.0165963741370901,-0.0302797957780592,-0.0308811048689859,0.0767787384912256,-0.0198757811216573,0.0204910222185473,0.00879110791637858,0.00605579808563816,-0.000421816711631655,0.0344710719800698,-0.0126493811632993,-0.00433090679907268,0.0123381011176375,0.00104618511509128,0.0120718985416676,0.0225453518013652
"pctCorrectKCSession",0.709845127439853,-0.434798656261261,-0.189019420996697,0.0345106181511841,0.046168793817413,0.0752332614784421,-0.265347759740129,-0.0363558419204233,0.199541775229454,-0.0414371398595064,0.0217223123610503,-0.143727608841635,-0.0083838773754666,-0.149833888032726,0.0346665632152861,-0.00525230935232333,-0.0216601783458305,0.0167058859516565,0.0320540721159906,-0.0141387946370906,-0.0102934696156234,0.00398614102848545,0.0576505529940308,0.00780281776402037,-0.00825212527390874,0.00885524446851807,-0.00577204196324075,-0.102508764055717,0.0360176521601442,0.134946770874876,0.0485247537288219,-0.0252253963743378,-0.0290176993442259,-0.000100695894210421,-0.0171893896622293,-0.0345337971271077,-0.026117628917713,0.0790719342591369,-0.0188633072780029,0.0298295682328892,0.000609245448879093,0.00654440272865494,0.00755802332375494,0.0353997476981086,-0.0154138056199964,-0.00600420772712135,0.031261886111,-0.00590539396468105,-0.00264595183222239,0.0324320025510956
"pctOverallCorrectSession",0.0151330336539271,0.587311990436281,-0.542147355094999,0.076254758795692,-0.189267025192835,-0.00630922356310164,-0.0309312459220967,-0.0758213245841086,-0.100071784625043,-0.146935613874037,-0.0418714196128624,0.184273527385723,-0.0264223550282692,0.15695026629324,-0.0422237261525634,-0.0391113681256094,-0.00308081036643577,-0.0245425296193777,-0.150052800574093,0.0948370343675022,-0.0150306289429786,0.0406315686049925,0.279605229515182,0.085725632747019,-0.0647132130641374,-0.0463757991989359,-0.0101769165868544,0.0417280934795174,0.00637404477249212,0.107098657563758,0.0218724803905694,0.00549968263784078,-0.0166853362601892,0.0309979076543302,0.0127909351301233,-0.0181181810290054,0.0148805696803418,-0.000356170166059568,0.0284815029304799,0.0243609450379909,-0.00781571710609235,-0.0250127355737118,0.00936898828302049,0.0166557986734825,0.0138757754726025,0.00919855120127689,0.0428512019522531,-0.00310243314829605,0.017075192669152,0.0405260172975719
"pctOverallCorrectKCSession",0.12439938727747,0.505516193757633,-0.518557678477866,0.110009227218031,-0.219512229906189,-0.0467785662273996,-0.177522782310982,-0.0114501764265269,-0.12109180079664,0.0219001104555067,0.0112679735175122,0.0997266043200289,0.125332471795925,0.145325179478737,-0.124988487455757,-0.0558016368826168,0.00385847897098445,-0.0498670758048171,-0.110839572581954,0.0546282986209929,-0.0172906231839481,0.126432323104216,0.241817669310247,0.107121471682787,-0.0515333697581103,-0.0539451652546692,0.0130956500369629,0.0696115251747983,0.0201841651751085,0.133770727368128,0.0415505613471034,-0.0267069885383678,-0.0453515762441749,0.0558379038474361,0.0429849302813753,-0.0284740643374199,0.0711125102641272,0.00774685391618311,0.019508265519591,0.0935525450301035,-0.0224328893085295,-0.0613146667316724,0.0439404409712823,0.0145149584953942,0.0230614303664802,0.0292452537663785,0.143581538186445,-0.038582520368245,-0.0622017891175839,0.0774060069744031
"nStepSinceLastWrong",-0.481319763730192,0.721538185695456,-0.143163849257416,0.0536935295216802,0.123149289653738,0.0346592582235959,0.1627377365213,0.119121304580853,0.302867689243829,0.0531170758740035,0.134446113982708,-0.0396634868065881,-0.126778271066417,-0.0571170626144629,0.076189128248512,0.0484832601969161,0.000626241197468463,0.00397358023806569,0.0065750073477634,0.000662937935353194,-0.00793696502750969,0.0513075252803897,-0.0230729069210767,0.028319764340601,0.00352729741144556,0.0130073601017315,0.0109758168287716,-0.0167978897411184,-0.00545795268168131,0.00152643945181017,0.00428052010188313,0.0132463408930601,0.00574086469535112,-0.00309744458189229,-0.00335070263061994,0.000384180841918861,0.0238001961761369,0.00747314489476565,-0.0134679873603981,0.0102972165461733,0.00254083645340325,-0.000186786973039556,0.0064433128295511,-0.0277699471639385,0.0143001457829958,0.0168373311663067,0.0217900179670554,-0.00394213124186957,-0.0157933720901872,0.0324747171760661
"nStepSinceLastWrongKC",0.00570585688704077,0.652323127827984,-0.253752640760993,0.0614179766065524,0.0281599173965014,0.190100115516586,-0.183190484387371,0.0556562056568179,0.31361568271389,-0.11662394878579,0.00788555815436155,0.111354564816852,0.285301086499269,0.0850144229502025,-0.213137401502262,-0.179882208118884,0.034561432755261,0.0367803140352822,0.228090938441122,-0.114357178940367,-0.0651189452704325,0.094515946483522,-0.050099858789278,-0.0775815701361685,0.0391918019502443,0.0286724803696291,0.0152046450077375,-0.0432931444192705,-0.0110936698279383,-0.0491432208473194,-0.010147346426622,0.029578405703609,0.0302673700370435,-0.0171432504588508,0.00631585122495964,0.0334829118066333,-0.0314706157733843,-0.021969570821575,-0.0243665511619128,-0.00601200524339187,0.00160874726045339,0.0247252341383549,-0.000518751900260401,0.00483094188717974,-0.00953863827837306,-0.0335977377954859,-0.0334195352048558,0.00675870964495385,-0.0153012126176069,-0.0386807716545569
"nWEStepSinceLastWrong",-0.518011125011805,0.739439466394996,-0.0696007724298794,0.0462097378639429,0.0851754694543924,0.0482810254060869,0.125909252436296,0.115773533325565,0.237584633342595,0.0887933740196556,0.130007245946235,-0.0513693958862308,-0.101956092030729,-0.0924982925999035,0.0847427440429061,0.0326231912078247,0.0496278629315147,0.0157779057499247,0.0630718701933916,-0.00990631867456148,-0.0303025270153639,0.0146295153496912,0.00717771836170238,0.0226142747289254,-0.012350501119137,0.0147640564994388,0.00569360803728615,-0.00917833742755919,-0.0056662304548349,-0.0045450434756269,0.0191258732858421,0.00674275136982051,-0.0100581970785043,-0.0011244340669255,0.00525360258752819,0.00496614843608274,0.0301063650761288,0.00416745219313878,-0.0134359379828581,0.0156670665029132,0.000592322810384319,-0.00298652039989165,0.0086592248072614,-0.0209315151425676,0.0136301279947655,0.0230609855168938,0.0226593854524332,-0.00538751824312588,-0.0177924474529742,0.0348987470050751
"nWEStepSinceLastWrongKC",-0.175801555988,0.717027749586695,-0.160627828162641,0.071017797389138,0.0467331364955742,0.199114676993848,-0.278632240828224,0.0416409292800815,0.26523811145614,-0.072812466517199,0.0310336360157902,0.0548975248422761,0.187011391120743,0.021574183227433,-0.108138665032926,-0.0997159334824593,0.058743378220073,0.0387423895263321,0.200028515529246,-0.0832305272015714,-0.067355981173429,0.0519867891861786,-0.0492135073868634,-0.0326991682386184,-0.00328728223440367,0.0204491053042803,0.0397022074071721,-0.0377210551316168,-0.0281661648441008,-0.0413212649960282,0.0249233755136238,-0.00157491314470944,0.0136137644169562,0.00945694668644216,0.0120237993910754,0.0453183673158681,0.012869868784916,-0.0499124185120646,-0.0131234450351271,0.00483156765821634,-0.0346878264244225,0.012481413836106,0.00149066202669334,0.0105507395313934,-0.0238062534138052,-0.0283741682302807,-0.0666361082199477,-0.0179984444300724,-0.0102669678195074,-0.0715580449623842
"nStepSinceLastWrongSession",-0.467954082935456,0.712867288484058,-0.151222903033911,0.0470495263689028,0.134913638746924,0.0364837678119375,0.15473555335839,0.12561208916538,0.311226305242225,0.0456298898613334,0.129561856191268,-0.0459392717446136,-0.12774571434143,-0.0871520739718414,0.0569348788638207,0.039667677966453,-0.0131443431215586,-0.00186801453084537,-0.00412981844766422,0.0120765925647189,0.0117824876401573,0.0512094343296585,-0.0306521958486814,0.0223280359989538,0.0113488297030515,0.0191636854432888,0.0118259304005006,-0.0253949326315922,0.00386332922309738,0.0163217349018774,0.0275326096509381,-0.0517836128638785,-0.0260123490541452,-0.0076154573577519,-0.00923268487047574,-0.00429796786041446,-0.0164175115825324,0.0150377303411996,0.00474011525904553,0.019698246854389,0.000856532468228664,-0.0280075049542899,-0.00800113068311531,-0.0216530024066156,0.00548468153125694,0.0201083648225111,0.00848735097177119,-0.0061950251137745,-0.0120295105699162,0.0408662623850089
"nStepSinceLastWrongKCSession",0.000571516590908654,0.648751479393742,-0.254207159029085,0.0501307093055896,0.0524631884350839,0.200057676632213,-0.155483634452768,0.0670091752384315,0.311027283083216,-0.133340625489249,-0.0245805264371679,0.0752985773591824,0.28236958561735,-0.0392059704301757,-0.266063326657597,-0.216517608496469,0.0107349401630173,0.0148224826731047,0.178121458333776,-0.0975983317963797,-0.0227033527269176,0.0756373680244907,-0.052667541450078,-0.098671044552753,0.0814827082115016,0.0419295885704041,0.0160626785154628,-0.0378206867863855,-0.00698320401948487,-0.0411383387644575,-0.000524234628585668,-0.000838823131032863,0.00857581312854189,-0.0217074191318835,0.00608041156417517,0.0117225202869251,-0.0479862815264201,-0.024436319862383,-0.00888638181342027,-0.00212895367130321,-0.00632012850391798,-0.00811072359273545,-0.0194617084908489,0.0170591970012762,-0.0279784829572852,-0.034455445493206,-0.0448918286353685,-0.00642818293921741,-0.00267484166335377,-0.0290403039335741
"nWEStepSinceLastWrongSession",-0.507257693240806,0.732596960417228,-0.0751556511745483,0.0398200890940455,0.0954410425103131,0.0510189961584113,0.116176408322785,0.121681002719799,0.243860927517768,0.0833263809787463,0.125811945416466,-0.0576300928221156,-0.102961975382967,-0.122281572429127,0.0668549622689593,0.0237479275409507,0.0385859204221855,0.0106583699557264,0.0552146900110486,0.000966887002310463,-0.0125305498365797,0.0136827126349152,0.00186956690231006,0.0170843016680126,-0.00546035770161088,0.0211245709809231,0.00619088450897345,-0.0159578379564213,0.00336424635922387,0.00945929725309511,0.0411550705242508,-0.0562632959943033,-0.040678632756756,-0.00487742827098984,0.000757731845502318,0.000373211357244364,-0.00977461815421397,0.00918976860695596,0.00590718924208857,0.0248763648445937,-0.00105238356200447,-0.0301248942051174,-0.00521657544956485,-0.0162920058322977,0.00551625005660489,0.0269010938447769,0.00950844285113252,-0.00798633042089546,-0.0145031290581374,0.0438154634989821
"nWEStepSinceLastWrongKCSession",-0.181323077031028,0.713425906745803,-0.160295252911587,0.0598627474538831,0.0677900581135955,0.206691158984711,-0.257303031147398,0.0520082957564649,0.264159860500725,-0.08575609294696,0.00629347434411051,0.0254289078104529,0.182000526926344,-0.0853258197296859,-0.153639979421382,-0.12993997886491,0.0383167590911612,0.0208246814284207,0.157155999653581,-0.066685536821309,-0.0289180489061191,0.0331412575149721,-0.0520649489844716,-0.0528683500622733,0.0317436570611226,0.0315541279812268,0.0398084662254809,-0.0344707942136792,-0.0243137392057284,-0.0324879032257471,0.0379924341263001,-0.0403568473911595,-0.0120245449537431,0.00365484953942112,0.0130424427884814,0.026137605335709,-0.0103047847726409,-0.0499440320671673,0.00302113209452581,0.0130297645917091,-0.0417487747490434,-0.0192005036637652,-0.0178970205046983,0.0221734406257478,-0.0385941787203215,-0.0266772204013658,-0.078275157778016,-0.0286015797996931,0.000277825553777391,-0.0590060593067059
"timeSinceLastWrongStepKC",-0.131412959315819,0.123609682422864,-0.0316879661440826,0.0239304745186533,-0.00447567201570092,-0.00938632941664859,0.038317543386676,0.00986999094100414,0.0267436752908304,0.0485213061169993,0.0748347561790338,0.0531643588854413,-0.0714927857657246,0.11912469760126,0.0872261695631794,0.0557775895510508,0.0478223721963097,0.0207074258716395,0.0661386370598153,-0.00153905398930565,-0.132141758337231,0.0731687781887753,0.111258106060169,0.0718339377621756,-0.0572144937273458,-0.0126810367818162,-0.0558516209950599,0.218818808537454,-0.0786321975357109,-0.112729955141055,-0.260466727378748,0.466633297928087,0.281182337217039,0.0546153396269653,0.210969654488983,0.0230582556386832,0.0866339395370291,-0.428491358677785,0.145768627205579,-0.0918324562759564,-0.0114430795779518,0.213375757966185,0.146097217294834,-0.243936077228323,0.0603480583725349,0.0296357287658184,0.0508862802362587,-0.0635749296788466,-0.0579834148821821,-0.00887192891896521
"nCorrectPSStepSinceLastWrong",0.18920131811095,-0.0729681154812006,-0.423369452669488,0.0446255629654757,0.220503528933913,-0.0759650943946812,0.215573657684073,0.0237418370766859,0.382703074106203,-0.200454002852527,0.0305459070391202,0.064888273394097,-0.145974649395093,0.198619696287948,-0.0455385461622315,0.0919777894316634,-0.278199134095408,-0.0668653251276962,-0.320519619511403,0.0600370326207758,0.126672978215716,0.210291235805143,-0.172675491758132,0.0335203134900938,0.0902919797992646,-0.00945737353842859,0.0304277673902446,-0.0439302205477627,0.000965680659034698,0.0345336475729722,-0.0841196368634717,0.0374528148728739,0.0899328875359176,-0.0113255515802034,-0.0489871341774627,-0.0260004731357727,-0.0348597216209717,0.0190662086074631,-0.00071716713518156,-0.0300800260208388,0.0111643432513911,0.0158890530845898,-0.0123255765839958,-0.0399311454723108,0.00437252677885264,-0.0346679088163661,-0.00407024189052052,0.00805004160656493,0.010722854252468,-0.012472794397434
"nCorrectPSStepSinceLastWrongKC",0.419094634008412,0.118861269399145,-0.317851116550258,0.00313713489849469,-0.0311010682230353,0.0572358281797932,0.144040571876645,0.0549971629208705,0.239649515198883,-0.148406126997785,-0.0499170408265006,0.175281081005112,0.342643787381929,0.180516583997981,-0.32846385175365,-0.257813153315201,-0.0413547664687643,0.0105734796752485,0.157942355513844,-0.118351456663344,-0.021559933640991,0.136398348182405,-0.0225742122050739,-0.134859120272294,0.113602534522453,0.0306361733385217,-0.0500150111522017,-0.0305425390213271,0.0346518132896695,-0.0381067252323345,-0.0846851994124628,0.0836565422696204,0.0506464981183944,-0.0681042617893233,-0.0105166384939457,-0.0134483977994627,-0.114711058521252,0.0551522919838056,-0.0358044450000013,-0.0273624037219878,0.0839993443232159,0.0382492109578268,-0.00482644305750182,-0.0111526034436879,0.0288490912769957,-0.0257675538866166,0.0625671248618716,0.0596152128841372,-0.0178319542801326,0.0596311544841623
"nCorrectPSStepSinceLastWrongKCSession",0.415133588737016,0.112092602556344,-0.315942911611678,-0.00213774310004801,-0.0139662485817638,0.0649276114039198,0.170030749034542,0.061032885203165,0.23137175857076,-0.161901186402685,-0.080260746910726,0.143886467674283,0.341941781214345,0.0895108444406261,-0.362912424794218,-0.284130759818858,-0.0586187430316841,-0.0077594913710118,0.119102903813071,-0.109569365437282,0.00509045008192338,0.127202821847818,-0.0224509222458476,-0.143962773549705,0.146063278603437,0.040445918573063,-0.0477366416385878,-0.0227761773920678,0.0367367408697995,-0.0361944641588908,-0.0880670100369889,0.0898056542836236,0.0504216447098151,-0.066538630913387,-0.0134472723149523,-0.0281899753304853,-0.105155240315935,0.0484046754218688,-0.0307173916471696,-0.0354292730771558,0.0782842100715432,0.0220502561436133,-0.0113572317551385,-0.00483896540753521,0.0130182185616216,-0.0315305885641341,0.0581832539725534,0.0480055038297627,-0.00780550080457052,0.0567311393665467
"pctCorrectPrin",0.710551514079312,-0.420735582365245,-0.309341515539465,0.0253551834475009,0.0239439491746458,0.0737383651618329,-0.205764159206475,-0.0639036226268592,0.26816974019412,-0.113323923783149,0.0319805350821928,-0.0703041609962888,-0.0825289188062234,-0.088778917338385,0.0928306690583123,0.0216107204671629,0.00575872121465196,0.044449496491345,0.0373162225656559,0.000113013028271892,-0.0520376347106502,-0.0118035823650837,0.0887536125527815,0.0300479667678832,-0.0480230529327652,0.00703244181299704,-0.0121962671192025,-0.0389105215064269,0.0159224146654277,0.0601294387261803,0.00912653739563486,0.0528212331630211,-0.00836754641017684,0.00851506726018503,0.0367322840259607,0.00168187451756044,-0.00744409230368177,-0.0193732311239804,0.00886559633022698,0.00777703534812553,0.00671010391841802,0.026574043374211,0.018641673361283,-0.0155272164178281,0.00784876895235054,0.0139112879474442,-0.00241176703576527,0.00117596302244967,0.00853679088084024,-0.0016663870139289
"pctCorrectPrinSession",0.692343755683268,-0.417230518883108,-0.296520570978735,0.0203009580292333,0.0313128303682822,0.0725779695609358,-0.188641564996773,-0.0565425430131467,0.261848243757685,-0.130177443807651,0.0115046379647267,-0.0792624731071905,-0.0748496683697117,-0.137242370369497,0.0571113489068195,0.00651096158066815,-0.0193614106715018,0.0327600745643332,0.00252911693323671,0.00325902680987186,-0.00585820550497888,-0.038759885230415,0.0568687677776981,0.0114390258530128,-0.0249879543499977,0.0140013394339605,0.00437140536372371,-0.0772696629261008,0.0280465498862579,0.0915854183513211,0.0602905872566873,-0.0311958666614947,-0.0575529656618745,-0.00467209622056483,-0.00223687451132534,-0.0178987080874345,-0.0258523918587957,0.0567391893895571,-0.0102261151273708,0.0278337868793854,0.00255571876120061,-0.00430294073494093,0.000202338108088063,0.0317237631741048,-0.0156228036005117,0.00593410026047827,-0.0139548605668646,-0.00135549459064086,0.0226151920502427,0.00479851635470156
"nStepSinceLastWrongPrin",-0.489971799857812,0.704217598444949,-0.142529352696164,0.0519790362190317,0.111448796803888,0.0412028871202066,0.169098179438746,0.117227198737954,0.307607618656727,0.0382744442697532,0.137605809797849,-0.0389203956034759,-0.156114071884335,-0.0534696544613669,0.0884437480010097,0.0724859675345612,-0.00488206650535977,0.00399287459268863,-0.0156702909666434,0.012440419353281,0.00745675956747638,0.048933511614184,-0.0294063519384207,0.0337157446138881,-0.00486039733286217,0.0129294779810417,0.00826425251309292,-0.0174598888235932,-0.00602004690877694,0.00849666855341547,0.00637790560682755,0.00809413606759165,0.00593589404519617,-0.00435901928351337,-0.0100418436814098,-0.000974016969879949,0.0225646227765654,0.0119751274370158,-0.0142281163092127,0.00514549956198442,-0.00509867177221509,0.00445373707555022,0.000584145194138838,-0.0256151565253659,0.0121748460683214,0.0172297715334554,0.00691250496881645,-0.000761572691512761,-0.0111269125559049,0.0347725330702136
