"","Dim.1","Dim.2","Dim.3","Dim.4","Dim.5","Dim.6","Dim.7","Dim.8","Dim.9","Dim.10","Dim.11","Dim.12","Dim.13","Dim.14","Dim.15","Dim.16","Dim.17","Dim.18","Dim.19","Dim.20","Dim.21","Dim.22","Dim.23","Dim.24","Dim.25","Dim.26","Dim.27","Dim.28","Dim.29","Dim.30","Dim.31","Dim.32","Dim.33","Dim.34","Dim.35","Dim.36","Dim.37","Dim.38","Dim.39","Dim.40","Dim.41","Dim.42","Dim.43","Dim.44","Dim.45","Dim.46","Dim.47","Dim.48","Dim.49","Dim.50"
"earlyTraining:0",1.17758027684021,1.06850217960962,-0.335186980771389,0.158634145805114,0.839850121334811,-0.0945455736776164,0.0158666856676831,-0.00619466001598946,-0.361908274659405,0.0773415812967066,0.299654771263791,0.08401649961735,-0.0694050253393252,-0.110621571999734,-0.0594822070198663,0.138323232646095,-0.24598047406381,-0.0188640364549733,0.0825091143697139,-0.0678192221739716,-0.0183037890243692,0.0199571118561069,0.0336856761933777,-0.0510449376765299,-0.0358258813750487,0.0640520892532605,-0.0501529139427715,0.00779632631918476,0.0321245657130121,-0.00612623485050671,-0.0480037438548564,-0.0105451624642863,-0.00813718417867583,-0.0404986787207849,0.0205517252629714,0.0531832395809049,0.00462886225727211,0.0106646651626016,-0.0130885740566075,-0.0147212594905948,-0.0340693125516953,0.0298828435430213,0.0195363687014689,0.0391597542883504,-0.0267883794675009,-0.0208093544269306,0.0179744814852789,-0.00289967175908413,-0.0108593194079176,-0.00446230247392885
"earlyTraining:1",-3.5327408305207,-3.20550653882893,1.00556094231417,-0.475902437415351,-2.51955036400447,0.283636721032843,-0.0476000570030173,0.0185839800479714,1.08572482397821,-0.232024743890116,-0.898964313791369,-0.252049498852044,0.208215076017963,0.3318647159992,0.178446621059595,-0.414969697938286,0.737941422191433,0.0565921093649198,-0.247527343109148,0.203457666521917,0.0549113670731087,-0.0598713355683223,-0.101057028580129,0.153134813029587,0.107477644125148,-0.19215626775978,0.150458741828312,-0.023388978957554,-0.0963736971390356,0.0183787045515207,0.144011231564567,0.0316354873928614,0.024411552536027,0.12149603616235,-0.0616551757889149,-0.159549718742715,-0.0138865867718194,-0.031993995487803,0.0392657221698218,0.044163778471783,0.102207937655088,-0.0896485306290633,-0.0586091061044072,-0.117479262865051,0.0803651384025033,0.0624280632807929,-0.0539234444558348,0.00869901527725315,0.0325779582237522,0.0133869074217905
"simpleProblem:0",0.985077604851322,0.944683703853484,-0.463063282643278,0.249811434089819,1.25816018994982,-0.47938130992351,-0.0186208020909389,-0.0418562925300489,-0.375622225964497,0.0326761403673429,0.322648014481447,0.0494963730292907,-0.0784548000053311,-0.145924585223518,-0.203956600681659,0.21866224584478,-0.064287939590437,0.218993857959204,0.0381567798133761,-0.0705730430976652,-0.0507912402110163,-0.00885894772150986,0.0444946546009319,0.0395714648025332,0.0657016628019106,-0.030509881586256,-0.0387829630918235,0.0144747498038075,-0.0317420335196292,-0.0415051815499813,-0.0236239940800766,0.0514365832113082,-0.0192789210785401,-0.0691121100823766,-0.0711587900031365,0.0239801131226366,-0.043126147502221,0.073151477751876,0.0661777818857268,-0.0146203046233604,-0.0479182993384328,-0.00365642703262898,0.0141354934712114,-0.0244045460057252,-0.00789522916612143,-0.0445130577691866,0.0652690284553656,0.0140974656033907,-0.0187457837285608,-0.0111562720991911
"simpleProblem:1",-1.97015520970263,-1.88936740770697,0.926126565286569,-0.499622868179641,-2.51632037989966,0.958762619847038,0.0372416041818514,0.0837125850600956,0.751244451928998,-0.0653522807346925,-0.645296028962891,-0.0989927460585801,0.156909600010665,0.291849170447034,0.407913201363312,-0.437324491689561,0.128575879180879,-0.437987715918407,-0.0763135596267524,0.14114608619533,0.101582480422033,0.0177178954430218,-0.0889893092018684,-0.0791429296050643,-0.131403325603822,0.0610197631725139,0.0775659261836482,-0.0289494996076156,0.0634840670392594,0.083010363099963,0.0472479881601545,-0.102873166422617,0.0385578421570805,0.138224220164755,0.142317580006273,-0.047960226245271,0.0862522950044452,-0.146302955503753,-0.132355563771452,0.029240609246722,0.0958365986768639,0.00731285406525547,-0.0282709869424225,0.0488090920114492,0.0157904583322425,0.0890261155383731,-0.130538056910731,-0.028194931206782,0.0374915674571215,0.0223125441983796
"newLevelDifficulty:0",-0.151577623566884,-0.276057392172366,-0.538272331563866,0.0621580088022604,0.237881296679469,0.632840137274377,0.0246648027228948,0.0677196714908224,-0.0363170759483051,0.437873290560161,-0.275419330630154,0.280959242540574,-0.471864010686206,-0.0224553620467491,-0.565611253815774,0.570555718989187,0.0827080269403542,-0.777860647667484,0.24795722013384,-0.136441773996795,0.012386757016363,0.00213341496713993,0.0967350467860824,-0.0734067962492813,-0.0876697793118805,0.196984992717199,-0.121382258017648,-0.0142484134786238,0.118065490354148,0.073251295759847,-0.100714496335653,-0.0536267077497324,0.0577507665095735,-0.0170877692691793,0.0192219798592621,0.0143546037398191,0.0186205050620254,0.0173098111849459,-0.092806822049898,-0.00652208897219961,0.0277940513556356,0.0606755839939792,-0.00194694844843296,0.0466552171062313,-0.0182885487864232,-0.026107904402205,-0.00870829837169864,0.00174780133327256,-0.00205844163577492,-0.0586811767198148
"newLevelDifficulty:1",0.151577623566884,0.276057392172366,0.538272331563867,-0.0621580088022605,-0.237881296679469,-0.632840137274376,-0.0246648027228948,-0.0677196714908223,0.0363170759483048,-0.43787329056016,0.275419330630155,-0.280959242540573,0.471864010686207,0.0224553620467489,0.565611253815774,-0.570555718989188,-0.0827080269403548,0.777860647667486,-0.247957220133841,0.136441773996795,-0.012386757016363,-0.00213341496713975,-0.0967350467860825,0.0734067962492816,0.0876697793118805,-0.196984992717199,0.121382258017648,0.0142484134786239,-0.118065490354149,-0.073251295759847,0.100714496335653,0.0536267077497323,-0.0577507665095733,0.0170877692691795,-0.0192219798592621,-0.0143546037398191,-0.0186205050620255,-0.017309811184946,0.0928068220498982,0.00652208897219961,-0.0277940513556355,-0.0606755839939793,0.00194694844843291,-0.0466552171062314,0.0182885487864231,0.0261079044022051,0.00870829837169861,-0.00174780133327253,0.00205844163577481,0.0586811767198151
"performanceDifficulty:0.093988",8.48002119801194e-41,-2.17349227590105e-40,9.26024755774119e-42,-3.57999959731895e-41,-4.2741899826111e-41,-4.52851864360499e-42,1.59000749514665e-41,-2.87729039559188e-41,-9.24799064052463e-42,4.08307230919544e-41,-1.68708756877402e-42,4.35061490906457e-41,-7.38913614165398e-41,-6.73602960233101e-41,-3.2723575401106e-42,-2.76363823850138e-41,3.5689706392026e-41,-2.29244928632354e-41,-4.63768004476853e-41,-7.88204141015817e-42,3.54986083202858e-41,5.00896134225159e-41,-5.06117889782861e-41,-4.41822026663259e-42,5.72119867129988e-42,-3.96521797212035e-41,2.83619423448271e-41,-4.65245179802357e-42,-1.1470548123324e-42,-1.07818294116964e-41,1.46014209540656e-40,8.32582990309349e-41,-8.34944887888883e-41,3.56895636088689e-42,1.13064339203837e-41,-6.25581020833111e-41,-6.35013798592019e-41,5.06229864219626e-39,3.66301162268071e-40,2.40875558266275e-40,4.49091538248913e-39,-1.34841185185223e-38,-7.65777259559846e-39,-4.32593049156734e-39,-5.49346181002818e-39,7.58749713963187e-39,-3.22885523021672e-38,-3.2882283904039e-37,1.70533794436828e-37,9.54717945649865e-38
"principleDifficulty:1",8.4794327391012e-41,-2.1733299932361e-40,9.23867429275678e-42,-3.58389254926349e-41,-4.27773654424494e-41,-4.54202032123343e-42,1.59678324368547e-41,-2.87742213637768e-41,-9.29955435692381e-42,4.05183153909735e-41,-1.61615120142235e-42,4.31879286046837e-41,-7.37280365675602e-41,-6.72946017805527e-41,-3.16838278166716e-42,-2.76748085109641e-41,3.59738395829504e-41,-2.39744651522956e-41,-4.59322324452517e-41,-4.56046683455481e-42,3.47162526041174e-41,5.0229268907514e-41,-5.15229257982042e-41,-3.50253609388653e-42,5.50006641946453e-42,-4.10194701809364e-41,2.96081867051222e-41,-5.12103670421395e-42,-1.63579611665972e-42,-1.12729747784193e-41,1.46509035001113e-40,8.25602132003759e-41,-8.27046491649988e-41,4.76128680298612e-42,8.54141961360971e-42,-1.62888205808064e-41,-1.42803793427217e-40,6.76837989295391e-38,4.02742760176996e-39,2.62821237206827e-39,4.67164832098789e-38,-1.42124154800696e-37,-9.07872832028736e-38,-6.65717534474805e-38,-9.71939971610268e-38,7.33303413197231e-38,-3.13905342488045e-37,-4.44688135982647e-36,2.19286644909517e-36,1.06976684327646e-36
"principleCategory:0",8.4794327391012e-41,-2.1733299932361e-40,9.23867429275678e-42,-3.58389254926349e-41,-4.27773654424494e-41,-4.54202032123343e-42,1.59678324368547e-41,-2.87742213637768e-41,-9.29955435692381e-42,4.05183153909735e-41,-1.61615120142235e-42,4.31879286046837e-41,-7.37280365675602e-41,-6.72946017805527e-41,-3.16838278166716e-42,-2.76748085109641e-41,3.59738395829504e-41,-2.39744651522956e-41,-4.59322324452517e-41,-4.56046683455481e-42,3.47162526041174e-41,5.0229268907514e-41,-5.15229257982042e-41,-3.50253609388653e-42,5.50006641946453e-42,-4.10194701809364e-41,2.96081867051222e-41,-5.12103670421395e-42,-1.63579611665972e-42,-1.12729747784193e-41,1.46509035001113e-40,8.25655725395297e-41,-8.27068084260361e-41,2.74010878678326e-42,1.19744671154459e-41,-7.28477072351048e-41,-4.63907717475721e-41,-8.91290702837167e-39,-4.51620133826394e-40,-2.91986376503269e-40,-4.98257456896647e-39,1.58166737265791e-38,1.05850805584094e-38,8.38789110876997e-39,1.18258571229541e-38,-7.21298464995779e-39,4.61859378008108e-38,6.53108276467129e-37,-2.81849936035473e-37,-1.61057165295958e-37
"problemCompexity:2",-0.603404302755673,-0.553065714196218,1.23838494821234,-0.538870203953145,-2.48446898673927,0.527251502293089,0.247880563415671,-0.0622343471456144,0.356691153125732,-1.33257874312564,0.198789237294133,-0.997034160078067,0.296522460267644,0.428619015441776,-0.30001707091043,0.392262130360533,1.2320531144552,0.235121313547814,-0.394439170712318,0.224439841330392,0.129729115250332,0.0436425830528082,-0.169450550035086,0.0646659322531365,-0.171174365514981,0.18058351016288,-0.099838320627869,-0.0745670773312476,-0.0486227638438758,-0.0907655873528212,0.133111091605182,0.0765765560853792,-0.0179697342462492,-0.0253329943228149,0.030451796222916,-0.0546562059302273,-0.0449027703219469,0.0313346876816935,0.0937763865870653,-0.0125350841449514,-0.0103604470006748,-0.00853853829608581,-0.00548158008333134,-0.0887040772265657,-0.0104410483475602,0.00279552064713927,0.0339810842359294,0.0220041780148981,-0.0227286504839443,0.0700398784686506
"problemCompexity:3",-0.386321392156208,-0.780840696303699,0.617335456645814,-0.244680076447774,-1.44969518431288,1.07829280000256,-0.158039016508808,0.17620023176977,0.0407212691327986,0.946857155483458,0.0483886458165241,0.8147328762341,-0.142166772152895,-0.308177686683372,0.288034131051431,-0.274555437235146,-1.1299542589898,0.153106326315958,0.119851329037916,-0.142850497995153,-0.0616782215827085,0.0153212564801145,0.0711922847213461,0.0425082512399973,0.0899743400923261,-0.122594597580387,0.118065813375601,-0.0185256272308845,0.0173014126416907,0.0397647082616434,-0.0538163269510691,0.0280173919156591,-0.128598915885402,-0.178630652516902,0.0610330279383431,0.271875867302629,0.0740753329163221,-0.0479332126371774,-0.0314498885702504,-0.0815850880345647,-0.0471844306078542,-0.101887591132584,-0.0204445600100239,0.0165992193424639,0.00869178882908492,0.0301735123971923,-0.00421429906185705,-0.0321534301338057,-0.0146336772041479,0.0479574351123018
"problemCompexity:4",0.671099695378354,0.956511985560688,-1.23689933424407,0.519066183530113,2.6504375394939,-1.17898514137793,-0.0222971248423382,-0.103619577128448,-0.246591707181684,0.0420615214886246,-0.157984459029701,-0.0535658049404393,-0.0641800584382722,-0.0106292599183682,-0.0504170622948839,-0.0157129284282028,0.164731538518722,-0.263557849181454,0.140782439197058,-0.0203835064021118,-0.0284948918840328,-0.0384425550157784,0.0447165022439784,-0.0728061603438811,0.0307251472351284,-0.0102744280334215,-0.0345496583237603,0.0595607481834566,0.0153325281929718,0.0226475858023775,-0.0368135934022551,-0.068359847183754,0.113660973256071,0.158104318607209,-0.0670975000844251,-0.184706970283968,-0.0323186041398925,0.0195457575007271,-0.0311059210960392,0.0727891209146213,0.0439638126866888,0.0866331958837204,0.0196445960580177,0.0399430708619692,-0.000688802054731952,-0.0258161223060378,-0.0170172112920718,0.0125202372981063,0.0253441320536853,-0.0803898751710301
"problemCategory:0",-2.49789007254433,-2.05718101284994,-1.16916419535313,0.305697543442771,1.16430286159899,-0.357474688800374,0.0380466138423388,0.000958602843281783,-0.0513784999656582,0.0398861112430828,-0.151440722802056,0.0565415777827673,-0.0249727600680437,-0.042897031183378,-0.164807166777024,0.0170424489813327,-0.0581678931731236,0.0381174279469763,0.0010423660967301,-0.0217383425910633,-0.0107885453428694,-0.0415774103441812,0.0278688865202048,-0.0306633206120645,-0.000404285223133653,0.0200311992883762,-0.014900043796228,0.02856414757363,0.00608710780024218,-0.0133615574102213,-0.00105805062705368,0.00100856157076637,-0.00920588542344734,0.00310031953268351,0.000921773537348321,-0.0115677478952081,-0.00598488035175791,0.00626637827598405,0.00810955791765437,0.0173124495552139,-0.0175763181367263,0.00977209496759333,0.00952944806901619,0.0184962937393414,-0.00725507574751265,0.000996533538926775,0.00788981741537476,-0.0045146547193913,0.00206940690577632,0.00998547824224981
"problemCategory:1",3.49704610156206,2.88005341798996,1.63682987349439,-0.427976560819879,-1.63002400623859,0.500464564320527,-0.053265259379273,-0.00134204398059256,0.0719298999519266,-0.0558405557403152,0.21201701192288,-0.0791582088958766,0.0349618640952602,0.0600558436567277,0.230730033487835,-0.0238594285738643,0.0814350504423746,-0.0533643991257674,-0.00145931253542129,0.0304336796274883,0.0151039634800165,0.0582083744818537,-0.0390164411282862,0.0429286488568901,0.000565999312386829,-0.0280436790037268,0.0208600613147183,-0.0399898066030829,-0.00852195092033955,0.0187061803743098,0.00148127087787568,-0.00141198619907255,0.0128882395928265,-0.00434044734575694,-0.00129048295228769,0.0161948470532911,0.00837883249246045,-0.00877292958637762,-0.0113533810847163,-0.0242374293772998,0.0246068453914168,-0.0136809329546301,-0.0133412272966228,-0.0258948112350777,0.0101571060465178,-0.00139514695449791,-0.0110457443815248,0.00632051660714775,-0.00289716966808643,-0.0139796695391501
"pctCorrectBayesSelect:-1",-1.07211005842218,-0.554937720129246,-0.525567012173156,0.0568395497703731,0.157263097521858,0.472173665144193,0.0871539915966593,0.0596516467264035,-0.0279037692001453,0.0424748634900683,-0.044051979495777,-0.0575442402405975,0.042451705492518,-0.0095004159381835,0.175935506222265,-0.149834442981797,-0.0587744503009454,-0.126067096243609,0.0117345669915274,0.023574498907835,0.0210434179790417,-0.0245121324587185,-3.04127426083074e-05,-0.00802149445919212,-0.00480004987462553,0.000293605373986566,0.0370237250764712,0.0108547931227974,-0.00259263877556147,-0.00517146124423056,-0.0173445071875819,-0.00177827757935293,-0.00151322878263459,0.0013969240505056,0.0160779470711276,-0.0261251120369295,-0.00932774558166467,0.00649596889559098,0.00464906737799196,0.00696122371394875,0.0150944829619422,0.00782544214957704,0.00631401002139126,-0.00688958452218063,0.00956420726227862,-0.00820300169644118,0.0341976503498753,0.022065129117865,-0.00234652067274095,0.00153587758365016
"pctCorrectBayesSelect:0",5.31756431409412,2.56956314948893,4.86185338872364,-0.425473946982116,-0.0246279415284047,-1.94890634290455,-0.592449371657666,-0.46155434287072,-0.5403340358894,-0.173104449136154,0.11413737693559,-0.517209964762205,-0.481067024686344,-0.0993550984872419,-0.684234444043354,1.04864048286805,0.790413633020252,0.269331089554125,-0.36088095054289,-0.171543706877243,-0.106078403517718,1.6919709240932,0.339653550981308,-0.322891026010627,0.977823168024631,-0.409982096372014,-1.09726384493856,-0.263364531536359,0.79813563749858,-0.522254018139483,-0.234475846804205,-0.00919594151160621,-0.829838056818508,0.126058556386531,-0.0220245532809281,0.544653411047634,0.473010727447903,0.0633072746464869,0.0854821337480002,0.768268870954657,-0.109609650888966,-0.0137129147781169,0.732191080439667,-0.363153668390128,0.284159368035141,-0.711780203562323,-0.360530690094614,0.306560075922902,0.439532917039062,-0.0589386080390158
"pctCorrectBayesSelect:0.333333",9.6339671093344,4.5426554066707,2.89303290270529,-0.403155605053975,0.266382127923302,-9.74107650704803,0.655641599217989,-0.749360115363994,1.80833679321504,0.158391429546049,-1.55362198370006,1.51515374344378,0.846610035258682,-0.365771669453001,1.59864203763224,-3.60296840150667,-0.0542222634631666,-1.93200443308881,0.237019085234811,0.290227053139238,1.35491260751734,-1.5242997245677,-0.697333560216847,6.97872846543863,-1.42347369702626,3.43412324051942,0.656217814498604,1.69353555511697,6.83882243991554,-2.28624504097864,4.89930059858655,0.489975167722104,4.94847525384004,-5.49106571838927,-0.355928173345533,2.4200493348075,0.821554895266224,0.648623812413453,3.92993661909661,5.72065041333786,-0.337366583821797,4.07810624704009,-5.42567417510334,0.529244191732097,0.596585618948379,-0.646708212964555,1.1831542457882,0.308176409132709,-0.238394720474543,0.0519166927576117
"pctCorrectBayesSelect:0.5",7.28889422554851,3.51940435748733,2.79149688817115,-0.0315129235261997,-0.967320275136556,-4.97350192802222,-0.278669937949099,-0.227368818721535,0.321428667572858,-0.0731621357795016,-0.191749011787952,0.206556342259024,-0.474295905441054,-0.387122452981173,-1.06198189084869,0.414288452417503,1.0543533286758,-0.0205092156178351,0.0644420050543945,0.354042740467484,-0.222327251883243,0.572055461623754,-0.046382857486206,-1.84191883035015,-2.72648010900613,0.723457566073301,3.99271703366389,0.571717628463019,-1.38414070926009,0.784524212928346,-0.734862432274343,0.436912948099486,-0.182475096271429,-0.640344752595362,-0.828702518425756,0.342675221441932,-0.402422136392721,0.258570456882499,0.465842942812696,0.269310029682013,0.347336057548619,-0.519214222001482,0.679711317521206,0.137650336677143,0.211877208368184,-0.153661101017864,-0.154917691348047,0.209160942938661,0.179172445249128,0.968439441403439
"pctCorrectBayesSelect:0.666667",8.5563299954311,4.91130629944971,3.43503292399398,-0.0942790329187493,0.439786201561567,-9.42303975129802,-1.34013977111003,-0.716117117931328,1.80829757185804,-0.0889919918924236,-1.78420912206427,2.08275886943214,1.7021583336244,0.279416453624058,1.24489438304825,-3.88353885354099,-0.536882858448076,-1.90478318667503,0.921381844070238,0.0569028198377809,1.18958794759626,-2.01878749411432,-1.47695850369347,8.08948489166359,-0.318179603986723,7.40926100188122,-4.06323874286038,-0.996327909919378,-4.15295813980455,-0.341439753181409,-2.24171123376066,0.735817758059249,-3.30724575620636,1.65645852855167,-0.276801519633249,-0.932491666634782,-0.38236245831154,1.33507998786321,-0.385089102221586,-3.46807856215783,0.373072672359916,-2.40596483463376,3.57448115775593,-0.316674361741021,-1.24822570225062,-0.992773835629994,0.0403503109776463,-0.451318174208784,-0.173840270126428,0.25796645744091
"pctCorrectBayesSelect:1",6.24795590698384,3.47640870411224,1.38578942634662,-0.346049392055765,-1.8356585059792,-1.89512476932855,-0.491712785908161,-0.228826452253815,0.565514039256154,-0.395963176703309,0.748462658645314,0.981840972036537,-0.128161933017508,0.348881451200898,-1.56732267669658,1.36034672917739,-0.241338101436935,1.69024526642445,0.0794937393025181,-0.298464439737799,-0.25663157989748,-1.20936010260271,-0.167089208164028,0.160637681404452,0.163243339597486,-0.514384071448623,-0.591790088373517,-0.111719620229574,-0.292513624260938,0.420331542187258,0.609356152853272,-0.18426769613535,0.824563710092827,0.232035551534423,0.112753945129511,-0.314267298743468,-0.188245385738925,-0.350675919414031,-0.459199677474733,-0.937545732192225,-0.228550705974639,0.0418112738560867,-0.96049343088341,0.377304411202681,-0.40917777519553,0.912996817352728,-0.140940021655395,-0.637134218973461,-0.40940414748754,-0.308777606857771
"pctCorrectTotTheoSelect:-1",-2.59661971707069,-1.15699645301934,-0.992616966164588,0.279735547169711,0.957863791152369,-0.133170052775923,0.0306950351275187,0.0352129850545292,0.0986183375520682,0.0580432310971321,-0.08891022593619,-0.00894085246649506,-0.045482571980272,-0.0605083753955461,-0.0617972563276219,-0.0232736715935749,0.0452473374662997,0.0177978005896219,-0.0121020470943926,-0.023109923144475,0.00219343077108881,-0.0303126313856433,-0.00293912818151754,0.000476995823835999,0.0125693073097421,0.0198703669696953,0.0122534344150961,-0.00452523888734645,-0.00123733829160215,-0.0133225101021058,0.0264582357101906,0.00971684687669934,-0.000600806513485643,0.0106614808662639,0.0111966418649363,0.000666973286478387,0.021750472686012,-0.0292577049731031,-0.00926315950513363,0.00850482586794189,0.0186147001928107,-0.0179916845345273,0.00523714428519518,0.00445845797801793,0.010349207829808,0.0183021142863438,0.000984611520880537,0.000771887173387149,0.0414836520997643,-0.0185224423689801
"pctCorrectTotTheoSelect:0",3.72099494961776,1.51363009687773,3.02834437522331,-0.566133467489962,-1.2111408839449,0.871156496710629,-0.301696230658711,-0.0861204898062033,-0.691070203262401,0.00048322301282494,-0.0360708372027409,-0.670940755372355,0.0804592101813652,-0.00643734939910896,0.586784262438872,-0.123819352867373,0.30113154427902,-0.303953314365928,-0.0737392264044522,0.0849902198206506,0.0326967937257943,0.874170395817611,-0.0195775053363073,0.195682703134289,0.237476326821192,-0.345748552440954,-0.0373827554439863,0.0702980094565437,-0.410296142227561,0.288725491914432,-0.178273891533219,-0.355361592355175,0.148055284530809,-0.284724655679588,0.0751388597475871,-0.0299110715056346,-0.0756625654946888,-0.0805479546671154,-0.284716031083287,-0.103353970843335,-0.126356925713489,0.123269322833716,-0.128604472681586,-0.0321529070527813,0.0542274484422532,-0.507245794245584,0.0533445576951491,-0.0136528807648791,-0.683295219987471,-0.149010662456052
"pctCorrectTotTheoSelect:0.333333",6.85254108061878,2.26223280072695,1.88621852427736,-0.85540732519633,-1.83889107715475,-2.59896363954892,1.52002376522261,0.247377354012241,-0.217482975189043,0.438462684380195,0.723305819399007,0.144093189062414,-0.0718001977014519,-1.0133396421713,-1.71415448267704,1.17467015192749,-0.111877933220966,1.54463556954784,0.472672567683746,-0.15150147269195,-0.25288486091525,0.378809734540883,0.285346262306252,1.86738329217136,0.129020850381811,0.0325649540235069,2.2500512575582,0.0796847166058127,2.41927457773935,-0.962048156537551,0.105691404960019,0.332599081038841,-0.991649070062854,1.24076473138376,1.13133300614838,-0.931819619370715,0.203631650764676,0.00423508515107867,-0.335111846195043,-1.25296835983246,0.112222785775463,-0.0709400637461015,-0.694266731095041,-0.00867012095949711,-0.356019653284797,-0.825228553582075,-0.0568548120763718,0.407044376319118,0.249069369028858,0.256901001197753
"pctCorrectTotTheoSelect:0.5",5.31488732714719,2.64658181594332,1.1127079402627,-0.363111493584793,-2.28884532322618,0.125278617108793,-0.295237967183969,-0.0971615549993453,-0.362295624159331,-0.0905187646728234,0.025881903715892,0.465544019440364,-0.154487663312952,-0.374760312970091,-0.183139899106839,0.146489023210591,-1.90174800412508,-0.73030814304775,0.254783862200086,-0.0886167842875817,-0.225535324385283,0.212881897578721,-0.00300797214908703,-1.56948623654201,-1.23130346933702,0.757887767700353,-0.891442821298874,-0.234252386996585,-0.583161294498731,-0.704281337310972,1.40998922179739,0.748818668076979,0.0200641447167807,0.718582639695343,0.0508336451084082,-0.823088570043499,0.135117347210124,-0.100310683216989,-0.169204551347281,0.0795676557427817,-0.448558760650893,-0.751595098968424,-0.671656379683686,-0.711678804122598,0.442722685158205,0.718738319116036,0.866195776705231,0.578020722638538,1.07176837640572,0.0615656737999457
"pctCorrectTotTheoSelect:0.666667",7.01590957365042,2.58488149212521,1.62981490729496,-0.654713665999479,-1.87700572977077,-2.66982743415573,0.73304277245578,0.121047608208697,0.486030371425723,0.0651244989372376,0.768627422237862,1.08699456806282,0.516687528450082,0.0490020193606045,-1.74254418138293,0.817270676416457,-0.26888427864683,1.59612123302682,0.598866175626945,-0.485023463293894,-0.0428987162340455,-1.23363646469713,-0.0794536835674414,1.78944172656045,-0.32807365804599,1.01505416985778,-0.231069756076843,-0.231167272728877,-2.21659812189141,0.455909296119726,-0.586521330718719,-1.02690431738033,0.781747912909482,-1.02793248157851,-0.336601728993549,0.873983641764881,-0.0921447472043867,-0.211213920168855,-0.263362236633914,1.81601464117962,0.529095485802831,0.303458177859135,1.33956766665536,0.18442120881576,1.12427061793969,1.4912208461914,-0.642616381869756,-0.0358399800051628,0.726951158109736,-0.113684661799536
"pctCorrectTotTheoSelect:1",4.8971151472104,2.74037387507418,-0.180965225478289,-0.316575241540406,-2.39120859328399,0.940770671220361,-0.205778360011955,-0.163130672951176,0.730499515502328,-0.555629856139487,0.248082311029277,0.723687656534617,0.13338404191271,1.00400294433499,0.544481660397993,-0.311547925490667,0.274926175793497,-0.140390582817799,-0.256562037887901,0.265397407960626,0.144771142288542,-1.33696505531772,-0.00533473444483783,-0.679062851127681,0.205298492371145,-0.242690718870329,-0.17270043039557,0.0786021184846025,1.07128384513612,0.105011636144319,-0.50325150486828,0.418303918263847,-0.224939758451672,-0.00784859880509385,-0.524445379071684,0.548551083030604,-0.131114212303457,0.505164274903001,0.921970449803118,-0.081463834779722,0.156228234711946,0.250058067600588,0.393325084636555,0.379955919537359,-0.684321690796606,0.236993018355191,-0.382360400818763,-0.431652219061507,0.0989083432557281,0.35122670815142
"pctCorrectBayesApply:-1",-0.957535324322681,-0.491592796961457,-0.489691118212253,0.0539234262194337,0.121748865828199,0.426521106514017,0.0717503851805248,0.0497565860629936,-0.0411023414433757,0.0399042367121775,-0.0438124736190058,-0.0578827130602187,0.024869007006022,-0.00297155834803564,0.168198317657255,-0.136010056377368,-0.0588842490606258,-0.116034476163784,0.0141656665020355,0.0314959766398622,0.0243665622708774,-0.0271491583368479,0.00048232707732415,-0.0215249631612643,0.00414850593686152,0.000640299648677567,0.0319812155917124,0.00434353611130055,-0.000421035058348311,-0.0102368973782564,-0.0174796415449856,0.00612572037733361,-0.000401363912092491,-0.000923987140865131,0.0142052692579387,-0.029539288949186,-0.0177170463762675,0.0162183697246475,0.0100178870358416,0.00849359900951374,0.0130671900747547,0.0113476575923227,0.0049125083802016,-0.0118842111707391,0.00529933781405013,-0.0127837616079815,0.0358504586911396,0.0190992540712988,-0.00592680002355828,0.00385260270011086
"pctCorrectBayesApply:0",5.32483181627435,2.54297437371173,4.86358328086301,-0.238379117132883,-0.11831365718132,-1.86989390567927,-0.658785342119325,-0.142686279520257,-0.389995998293722,-0.204175982398443,0.275122682433578,-0.308462969548816,-0.18316433300559,-0.0121683083177354,-1.01979240982958,0.923366885319262,0.36569117865378,0.531180823011703,-0.159152654253,-0.327329001973626,-0.632321979308549,1.72558949122918,0.335231668545683,-0.0755588483717127,0.726136438838721,-0.826317907423704,-1.05762382777222,-0.405855297893072,0.718111976566592,-0.583709723993164,0.02849815043209,-0.152021982433957,-0.271982464190671,0.399941606802594,-0.0222948949975257,0.309715496836625,0.24410679189104,0.506714865124956,0.192175187894209,-0.235713839473724,-0.115258237687133,0.176829878305552,0.158856956611345,-0.125059119630702,0.252224744397832,1.18051427865794,-0.535220539035912,-0.462526046644986,0.117674066854713,-0.140059590101666
"pctCorrectBayesApply:0.333333",8.52430615079086,4.80449004509997,3.50489297459731,-0.182694162492583,0.639890611973535,-9.58721560704688,-1.31675007604664,-0.564131265083767,2.30169033375768,0.173935827419671,-1.48962882116401,1.89615031481246,2.3555644730239,0.338636180962216,0.824586208413025,-4.49887775374443,-0.887271818755882,-2.30282847418503,0.905900237876661,-0.0810988695681855,1.40324395563854,-0.94354123151958,-1.60835809444714,9.75381810046188,-0.481908325807218,8.66930690578638,-4.67810253280957,-1.54203694718528,-4.26067168459155,-0.68039142666531,-3.75941572072113,2.07958528416258,-6.9511261711648,3.13440865430961,-3.08800844919974,0.629991358569415,1.70141501297822,-0.267991439213391,2.74524677186137,0.781506286178621,1.01799318015538,3.32746207409534,-6.51130617553865,1.1708802740143,-0.187632753027759,0.278821415776847,1.01253789867199,-0.131480665519575,-1.42872505472796,-0.347063058255746
"pctCorrectBayesApply:0.5",6.98494406047195,3.33053296424264,2.53982699287879,-0.507142177481001,-1.2440072463099,-4.33868422462783,-0.189221796355067,-0.290867249469757,0.481793944515052,0.0396082706590894,0.163324889479205,0.21701262408677,-0.13181221422085,-0.511413663249587,-1.60625469347871,1.0146241315573,1.42661028730993,0.323912510787466,0.150270428967868,0.158042772322662,-0.0300386128802824,0.945525361823721,0.22948442100991,-1.0576799649671,-3.40273754744246,1.13471352266328,4.9895426292202,0.383327817082068,-0.585527598366708,0.210387609945808,-1.20867650736765,0.201990785842595,-0.320592910574232,-0.333063642303929,-0.940418453567736,0.0490453781941656,-0.834366267119144,0.548000153677384,0.517497728924284,-0.767711568470743,-0.971432328359599,0.40118791274598,-0.258790166437621,0.0834100765924827,-0.261957217887327,0.581798470192275,0.529675937109002,-0.575551208607026,-0.199338592404667,-1.52826798294786
"pctCorrectBayesApply:0.666667",8.72209010601051,4.13870570625121,3.17441340680569,-0.1324035922313,0.420050293113821,-9.87204524553473,-0.609854452797573,-0.638545893242661,2.08317769757074,0.746198587293393,-0.844414706675347,2.2416167150275,1.24975272390119,1.52827411653959,1.7915854442227,-2.8802198464493,-0.194818006343662,-1.1859767029253,1.20620361307387,-0.183605696417806,0.786615387741254,-1.96443820247973,-0.927200803102618,8.02250525022037,-1.71369186039281,3.76194009263029,-0.674133720700109,0.752302477367894,4.29446573840267,-2.33134678641804,4.3315743885783,-0.938543892963545,5.32114501481132,-3.72829226116211,2.595267551422,-1.33316765963574,-2.52957460334882,2.75610852116811,-1.5140834289333,-2.7103683859217,-1.02141118253989,-2.47423936860485,4.94656339333572,-1.13764430350894,-0.31953768023035,-0.283084405283987,0.430179629293111,-0.142042950964903,-0.120817253412201,-0.473795434460935
"pctCorrectBayesApply:1",6.71667307976761,3.76467310850186,1.30789568113832,-0.458250907321138,-1.61825683623307,-2.47394844900471,-0.264141734579334,-0.51442906918772,0.755847587792366,-0.515821534078522,0.505492231408746,1.03810647162736,-0.374654966434748,0.0972084422924183,-1.32121158039084,1.33707617373748,0.17490628743012,1.45218251909465,-0.233816108602299,-0.177392689825834,0.228047015992404,-1.7308142318098,-0.337970176599667,-0.288185889468103,0.282092025612881,-0.0835920252344029,-0.570171773898953,0.315947931158223,-0.78565128067638,1.02476574968075,0.513643958776942,-0.0187812977803503,0.387002251173391,-0.240423391634566,0.0414455578417237,0.185330468063556,0.378296147882414,-1.25978891143108,-0.593226164904526,0.547225351059321,0.249273022550776,-0.517771676042306,-0.24003871662096,0.356107147309582,-0.28030250998702,-1.38836215329317,-0.218833661548363,0.432129889161115,0.102904908119545,0.641820084936987
"pctCorrectTotTheoApply:-1",-2.55571132051416,-1.12182353679478,-0.963155659650675,0.240442832927808,0.962327687622849,-0.119306683286134,0.0228508407929781,0.0196735534042002,0.0959135779801849,0.0303813303501054,-0.100659685968292,0.0141555849412172,-0.0449089334401053,-0.0751265486047022,-0.0609166128716909,-0.0230861156581738,0.0398079237139664,0.0188427298366214,-0.00517197752614057,-0.0193777199092996,-0.0100589062792048,-0.0269155652608798,0.00821207139377709,-0.0022939933696835,0.00907200266268502,0.0144393232703791,0.00690458458623799,-0.00576367153984902,-0.00177761497323813,-0.0134286626782692,0.0292673469685145,0.00878429752267464,-0.00503906319791658,0.00657896965423849,0.0180853229377786,-0.00593061150561191,0.030179945159536,-0.0266552002136218,-0.00752335582065241,0.00934160725005305,0.0197098032934512,-0.0157002684825744,0.00134094682530654,0.010323007279786,0.0149908296366068,0.00536420174340098,-0.0120925671780876,-0.00670478847321008,0.023739408201919,-0.0189336888757285
"pctCorrectTotTheoApply:0",2.99358146637925,1.30839072554308,4.40547504859782,-0.802804339410485,-0.394943203170126,1.50255231260906,-0.360849881515067,-0.168045407791558,-0.741024298468449,0.0681509492743102,-0.0865501186311416,-0.985993891941909,0.376414598959707,-0.095966866412772,0.774275594139436,-0.179528965528418,0.431347609433245,-0.643959887202255,-0.370214525625409,-0.101673275546228,0.018388060713556,1.38274829885546,-0.283552506871926,0.300516452403112,0.588011448310231,-0.506789234072081,-0.501345840945841,0.247659466384614,-0.218240690579697,0.427196093277989,-0.366386579413577,-0.245332522460519,0.625723510580673,-0.0678645070156726,-0.388425347484289,0.705040102098336,-0.454966969321169,-0.170862832863655,-0.119354183719984,-0.420149586744743,0.0981945909843388,-0.107396488671052,0.0953287100393815,0.966577230338577,-0.353608002862309,0.457265027585248,1.343592977198,0.186773418720123,0.0577176902370576,0.270106598572448
"pctCorrectTotTheoApply:0.333333",6.15302150905559,2.3312461492105,2.7011163988035,-1.07706874080847,-1.2885410389297,-2.00456218374577,1.00526859166127,0.445082905160944,-0.218253632559118,0.737580647577411,0.82668723673969,-0.393018717867966,0.538865451373375,-1.19614563689621,-2.37852427716699,0.938300101263622,-0.193461614322639,1.58691897325844,0.5824108154004,-0.0645210042837536,-0.775134988904415,0.217810608307332,-0.10404522367497,0.757010214495115,1.11316864635946,-0.535755636891507,1.74104106283044,-0.501674695290665,-2.84298505925518,0.697968513860752,-1.51214262774842,-2.45092334003212,1.85059872683503,0.507646337485727,5.75948117738194,-0.0995851874159095,2.76483715289535,3.3138531100559,2.65235824633347,-0.597337177835631,3.10437037079336,0.560044670108867,-0.961260997673391,-0.190198658685985,-0.703509540248987,-0.337178506810013,-0.0451813127611168,0.207601049902843,1.12782688630195,0.0853695626564284
"pctCorrectTotTheoApply:0.5",4.89912477335238,2.2018810363152,2.07144973685764,-0.16426170468487,-1.962310783724,-0.211989235033268,-0.180591459675005,0.287102659268165,-0.623344281833468,0.258315718636281,0.26509739126445,-0.191593847930576,-0.5406536771965,-0.0786358156715448,0.0846435051397346,0.535271690458699,-1.97560163904933,-0.833394685680694,-0.0834519266028842,0.477232004878228,-0.634275140628424,0.706303958141362,0.249953495345425,-1.79809773736336,-0.811947474578134,0.954893164953182,-0.568822779599682,-0.307931928976066,-0.479810271901681,-0.630183257530333,2.06244351764522,0.994276158169975,0.572529720909624,0.372881788549649,-1.02900071429713,-0.111804970927394,0.529343387964863,0.334578485258958,1.38153541465813,0.0825464348305524,1.71868707521799,-0.916205859787312,0.35407531050799,-0.105301848171848,-0.216108346971587,-0.579975706397032,-0.52206704243628,-0.848748293246465,-1.29973433557904,-0.24828790012572
"pctCorrectTotTheoApply:0.666667",6.87902470753556,1.95743109750791,2.64078606356091,-0.425147936494415,-1.51990960761714,-2.71119427981835,1.52793187272857,0.567398103538752,-0.400070839782833,0.566301071878086,0.765932254448079,-0.0496964050752576,-0.107509820425421,-0.868476791969304,-1.64229052887872,1.1635591277136,-0.0893030554419826,1.52623052880949,0.265655131275118,-0.129939766005855,0.128609766150915,0.459800578230931,0.330207646809342,2.36766914745407,0.294032911302374,0.237576839656917,2.11189654693305,-0.146301858205585,2.17404062715596,-0.782136578123252,0.287295708267774,0.561163180079319,-1.11184629402963,0.790130879944441,-0.562100228645148,0.142608186582948,-0.244665296822618,-1.99469371062653,-1.20821043035479,0.442066137331614,1.90168632005258,-0.101681538658432,0.686853108242032,1.1854975177656,0.202633787981546,0.502760039356704,-0.242566307280032,0.138040793305706,-0.0371018611207015,-0.18818362824211
"pctCorrectTotTheoApply:1",5.00764863368782,2.32007225566246,0.721678802497016,-0.345768456895437,-2.2710005824327,0.263344464013091,-0.123158606447615,-0.128916608679549,0.11046874022473,-0.248966781637418,0.177441248455348,0.342965599864702,0.0864540019541027,0.417245255894987,0.185165218283032,-0.118849283585356,0.0710235565624145,0.066477981918928,0.101747279860369,0.0325825443990139,0.14642467996798,-0.55788595613,-0.00053401892779835,-0.0860933047059382,-0.172702655355807,-0.0305460814651623,-0.0569492307693174,0.0205387356573037,0.0456506014245153,0.0526906081606784,-0.267320483007484,-0.0618691883460455,-0.248756106289606,-0.163018829258797,0.0605859083326744,-0.213010794045777,-0.114634097008055,0.157412100542867,-0.144165348166121,0.0782313059974382,-0.705118366398429,0.220251060749853,-0.126362307153049,-0.459123902608237,0.116889318769932,-0.116020712044343,-0.304772625949864,0.0717458888280929,0.0755200856394408,0.0232431718411004
"nAdd2Prob:0",0.902035418547658,0.899447800604048,0.315689491606277,-0.0783229225730179,-0.220891498140466,0.0831297836503568,0.121281253096882,0.0250439350398077,-0.00454001696756825,-0.237398080935366,-0.0708503627722888,-0.35115353888511,0.300661687687875,0.141493833589532,0.218878340632631,0.0199871009655164,-0.120783104010406,0.326625207766215,-0.107149853804228,0.0818878717524429,0.0276539828538272,0.0305133754281022,-0.0560157077231868,-0.0346308570800284,-0.105978062330919,0.0498466769739667,-0.00509248657095014,-0.0364645213550183,0.00421745871941528,-0.0283736135398273,0.0332300772996686,0.0140434449278695,-0.0692363104581098,-0.0528425115888336,0.0911911979550798,0.0890071209489298,0.0258970233967554,-0.0307926323829838,0.00364517631458488,-0.0289654593667984,-0.0372365744732895,-0.00818469663485945,0.00660449643108986,0.0063878898265406,-0.00855253600314491,0.0255059462343044,0.00118857887708676,-0.0143222604333746,-0.0250813263791088,0.0721487306728689
"nAdd2Prob:1",-5.0438143005244,-5.18720303482988,1.34477973391591,-0.399005284075901,-2.45248756987769,0.0814633291332562,-0.853609925400749,0.192364412624341,1.95177080175183,2.87496810722281,-2.48333489927887,1.93000480827133,-1.22758606334884,-0.355809700739557,-0.604437604620046,-0.158197053138961,0.128520912974901,0.16311323101603,-0.0550223893907467,-0.0764246345693292,-0.220887256327871,0.0833554747207171,0.168731762600019,-0.0401642065854885,0.3912278470012,-0.0570599080826714,0.0398687073520551,0.0339482260368443,0.124413258779545,0.155470950584691,-0.159087990478909,-0.0594792282374104,0.101754782260128,0.0906991486037951,-0.250238545860489,-0.131115620125879,-0.0139226521327861,0.129366473175651,-0.0652113803531042,0.0921856152697606,0.206702738571856,-0.102771384850531,-0.0697239646840537,-0.141491088599417,0.204298007154705,-0.0110140939058892,0.120320260827536,0.0453353402903798,-0.0159810043866723,-0.170289314429383
"nAdd2Prob:2",-1.53725223320226,-1.45391358530318,-2.09299257918619,0.55195579361653,2.22025552657094,-0.414815690993223,-0.118960676235592,-0.208879913991302,-0.955455324521844,-0.369192689402256,1.56049408211473,0.615188520847324,-0.739184562921024,-0.458817400783117,-0.682733730536812,-0.0108434277753383,0.47926351155938,-1.55137005045598,0.509685536814401,-0.330283105601329,-0.013999294678289,-0.178987926786818,0.167704803454334,0.17592096015287,0.281287356988535,-0.195780092341515,0.0029818358932454,0.147116233079158,-0.0811851936271417,0.0499457856368756,-0.0699913526090542,-0.0334558880567066,0.260686005931431,0.192441727847853,-0.285241117867615,-0.334974234207247,-0.109575279219008,0.0738836091356026,0.0162023967609191,0.0842517595157127,0.0642132158438757,0.0882168272821356,0.00514174840212228,0.0420000400802766,-0.0636625915631995,-0.109269711101426,-0.0655087353606577,0.0417825018049962,0.120856470899326,-0.23952463081322
"nAdd3Prob:0",0.761926020209277,0.565430879015393,1.54916403403047,-0.421479360779643,-1.88091928766247,0.079869573024595,-0.0912013176975049,-0.0138303121438847,0.473123910994743,-0.0657369733998206,-0.198814963429965,-0.0403081092371035,-0.00746315042408907,0.0754478721909266,0.0932311158266567,-0.00502449496981868,0.0162451601847925,0.00285710881784339,-0.0140724595638698,0.0273098377902618,0.000374763049677218,0.00888614603308193,-0.0409925965868581,0.0125426890831469,0.02460792993801,-0.041319582491135,0.0341893726083771,-0.0408083538086644,-0.00204082335174967,0.00261648045734341,0.0233402469485147,-0.0140636218957611,-0.00299571754316677,0.0476408636783289,0.0110338821682121,-0.0382385534701554,-0.00211425362975703,-0.00873833734773178,-0.00490498690642146,0.0280053204406649,0.0379455255894248,0.015750436381422,0.0146865133331051,-0.00794334867496758,0.0278006529030337,0.00869276036226383,0.0228879116924457,0.00684586067901398,-0.00848352664561347,-0.00727321795953795
"nAdd3Prob:1",-1.06669642829297,-0.791603230621557,-2.16882964764266,0.590071105091497,2.63328700272746,-0.111817402234442,0.127681844776532,0.0193624370014398,-0.66237347539264,0.092031762759751,0.278340948801949,0.0564313529319428,0.0104484105937178,-0.105627021067298,-0.130523562157314,0.00703429295774865,-0.0227432242587124,-0.00399995234498138,0.0197014433894146,-0.0382337729063659,-0.000524668269548889,-0.0124406044463159,0.057389635221607,-0.0175597647164099,-0.0344511019132128,0.0578474154875878,-0.0478651216517317,0.0571316953321297,0.00285715269244949,-0.00366307264028045,-0.0326763457279231,0.0196890706540678,0.00419400456043378,-0.0666972091496637,-0.0154474350354979,0.053533974858215,0.00295995508165562,0.0122336722868266,0.00686698166898933,-0.0392074486169329,-0.0531237358251932,-0.0220506109339884,-0.0205611186663476,0.0111206881449554,-0.0389209140642471,-0.01216986450717,-0.0320430763694228,-0.00958420495061883,0.0118769373038591,0.0101825051433555
"nDeMorProb:0",0.491608020539012,0.362266146595614,0.49496795945834,-0.120560619352826,-0.585650056342672,-0.109097462098444,-0.0428638849568411,-0.0781214984353271,-0.155201895382852,-0.425818824976861,0.656096600668386,-0.0223293561808497,-0.0253418915766442,-0.061652512099195,0.0306429407470545,-0.0599762763090814,0.0277162256889808,-0.253808187166029,0.0594270234061124,-0.0428626209109021,0.0345240269676444,-0.0256446684090268,-0.0132723630478584,0.0460794266886055,0.0214093517916473,-0.0750034523699987,0.0258614820644492,-0.0153679404432197,-0.0390242290703049,-0.0142163460261499,0.0236640202257016,0.0313428349682587,-0.0261771461056121,-0.0416413513650253,0.0171036041578895,0.0471443084918988,0.00654925637890887,-0.0178189938142589,0.0236185752706295,-0.0310478744646319,-0.0299279074131811,-0.0221799283202867,-0.00157074575620446,0.00456614081035168,-0.0333366810048829,-0.00169965244466698,-0.0077178381994115,-0.00121413067666404,0.0100085558316353,0.0124491532239732
"nDeMorProb:1",-5.0438143005244,-5.18720303482988,1.34477973391591,-0.399005284075901,-2.45248756987769,0.0814633291332563,-0.85360992540075,0.192364412624341,1.95177080175183,2.87496810722281,-2.48333489927887,1.93000480827133,-1.22758606334884,-0.355809700739556,-0.604437604620046,-0.158197053138961,0.128520912974901,0.16311323101603,-0.0550223893907468,-0.0764246345693288,-0.220887256327871,0.0833554747207171,0.168731762600019,-0.0401642065854886,0.3912278470012,-0.0570599080826711,0.0398687073520551,0.0339482260368444,0.124413258779544,0.155470950584691,-0.159087990478908,-0.0594792282374105,0.101754782260128,0.090699148603795,-0.250238545860489,-0.13111562012588,-0.0139226521327863,0.129366473175652,-0.0652113803531041,0.0921856152697606,0.206702738571856,-0.102771384850531,-0.0697239646840536,-0.141491088599417,0.204298007154705,-0.0110140939058893,0.120320260827536,0.0453353402903797,-0.0159810043866722,-0.170289314429383
"nDeMorProb:2",-0.127713974332612,0.317291287794324,-2.67998761830013,0.657316364433146,3.43019991448172,0.151652942456879,0.32446331939488,0.108023460130483,-0.783718009932454,0.474715520874111,-0.20573067850488,-0.199185871006047,0.621221223853937,-0.121774289014295,0.808897856841862,-1.14612512388998,0.124168070191214,2.62567112138353,-1.06164553920908,0.484581256047904,-0.167873565490947,0.504408491365919,-0.214784359209036,-0.703979148819881,-0.396865192986391,0.983268211998476,-0.350631119454491,0.352817280377007,0.291178150492739,-0.106725675433025,-0.183502061645652,-0.458292194358256,0.466069360689463,0.700803062916271,-0.0594283347449592,-0.710001697721846,-0.110119158670274,0.0344019826223957,-0.172220260311093,0.393627052037406,0.176733456619332,0.450755105779582,0.188503883223387,0.25548213518699,0.0363821036620632,-0.0676865732833453,0.0143448159309883,0.0303794295447587,0.0343181537760471,-0.190245527083946
"nDeMorProb:3",0.747056090005891,1.60951642767516,-3.11950375074083,0.826734493818194,4.29313816247996,0.748760887295908,0.914921570617383,0.402705613163125,0.228764266626313,0.482685796694823,-3.21580382823172,-1.52985473163763,0.834441863684713,1.0324565986466,-0.480246718945316,1.84410866381067,-0.50213501436693,-0.504510667905296,0.581824717944826,-0.0223930332804582,0.0780445791100209,-0.356961950405389,0.165503864039727,0.329428515207927,-0.187046820139638,-0.251177232585811,0.0780090735224001,-0.248454042424876,-0.0643733476395381,0.0792018390836839,0.129613870093254,0.235685907881333,-0.332229827999085,-0.416730049234834,0.155734443184448,0.416818541420647,0.0650985033928945,-0.00339751146972518,0.0248644632285318,-0.206381797125477,-0.114085028472564,-0.148364366046481,-0.104643206733493,-0.155086313880742,0.0593500182271767,0.09399753919124,-0.0652045329638223,-0.0647875937451653,-0.108414151874095,0.248492462497565
"nIndeProb:0",0.84447945637832,0.531286593019582,0.448192236102372,-0.0950378436601128,-0.414982435024624,0.170473339728847,-0.152502730883563,0.0134105810566789,-0.0684749872364965,0.386811106401402,0.205245871880496,0.344423296424393,-0.108209037854017,-0.153088192819801,0.142926200756354,-0.259633504757839,0.0370700449369275,0.278351903341458,-0.146500552599434,0.0341553573808584,-0.0249207285774563,0.112915755399846,-0.00121484508326327,-0.0679595670942193,-0.00824807912836943,0.0802447649617169,-0.0371264894679519,0.00699133317543181,0.0415913138925442,0.0318262658714375,-0.054570055307881,-0.00589081459531183,0.0147488268177485,-0.0517965673061008,-0.0137557212660491,0.0627212926876017,0.0200922957308526,0.0138901124726891,-0.0317153989511687,-0.0418571699463147,0.00248487709741896,-0.0362224218721459,-0.0341669297334269,-0.0252652625204103,-0.00759261970898854,-0.00685343931606215,-0.0113815621405136,0.00167225213161355,-0.00560365303255838,-0.00987684358391705
"nIndeProb:1",-4.17368559870544,-3.19554788242569,-0.45711318709026,0.0143030495614084,-0.279148123629183,-1.14151047242776,0.228801503667346,-0.261700421336614,0.193755309251081,-1.98199287715372,0.684295490653631,-0.784977468090953,0.0697197385007171,0.172668568365801,-0.403044543930936,0.246296439504939,0.0842523049672944,-1.00032823108391,0.368340127725042,-0.142502591573633,0.0731209890435441,-0.329639924096613,-0.0772851291451802,0.141103794320025,0.130639766147482,-0.235512826034819,0.128064665844586,0.0927660219229951,-0.15497423869668,-0.182819115963312,0.180758313838838,-0.0913342882617642,0.0997451933196736,0.441449577494871,-0.0159664758950021,-0.490655087804532,-0.122964582485282,-0.0608067503922395,0.130287063665995,0.291548163321157,0.0458605672978963,0.237183081447896,0.206072787167168,0.191236838282217,0.00449177957686013,-0.0161582926733388,0.0838192961142231,0.0248686622803217,0.0794235145835602,-0.0798004351211558
"nIndeProb:3",0.747056090005891,1.60951642767516,-3.11950375074083,0.826734493818194,4.29313816247996,0.748760887295908,0.914921570617383,0.402705613163125,0.228764266626313,0.482685796694823,-3.21580382823172,-1.52985473163763,0.834441863684713,1.0324565986466,-0.480246718945316,1.84410866381067,-0.50213501436693,-0.504510667905296,0.581824717944826,-0.0223930332804582,0.0780445791100209,-0.356961950405389,0.165503864039727,0.329428515207927,-0.187046820139638,-0.251177232585811,0.0780090735224001,-0.248454042424876,-0.0643733476395381,0.0792018390836839,0.129613870093254,0.235685907881333,-0.332229827999085,-0.416730049234834,0.155734443184448,0.416818541420647,0.0650985033928945,-0.00339751146972518,0.0248644632285318,-0.206381797125477,-0.114085028472564,-0.148364366046481,-0.104643206733493,-0.155086313880742,0.0593500182271767,0.09399753919124,-0.0652045329638223,-0.0647875937451653,-0.108414151874095,0.248492462497565
"nCompProb:1",1.3261510759326,0.689896934435899,1.14558984903896,-0.509251312068285,-2.33818923368727,1.70989886107835,-0.00139741210884876,0.159344264734921,0.215702889013999,0.520894731968512,-0.186774777404625,0.260675845509021,-0.150916497796915,-0.00186733495959822,-0.0471036897767,0.0954734261005484,0.0585197103072319,0.046500166772145,-0.0453361791377203,-0.00414333857130758,-0.0241441110490262,0.0712161619191518,0.00723923149561573,0.103160225222428,0.0438189616477072,0.0389249263590844,0.0100517862797679,-0.0130417687570807,0.01391505576238,0.0416263316737517,-0.0322969131697545,-0.00285159718086696,0.0506205316994296,-0.0105136423567798,-0.0790759174991096,-0.0179476316310578,-0.0149213365372878,0.0333089454328029,-0.0162799367714439,-0.00743967244929947,0.0601985523860047,-0.0251035269489783,-0.0281017816326235,-0.057256919523568,0.045386897284759,-0.0162275346886304,-0.00633991847477596,0.0126987152490354,0.0020858861410158,-0.0518081224965592
"nCompProb:2",5.81066082762303,5.76357938294041,3.80097985619307,0.00736847216612726,1.08833856736575,-5.96570815465587,-1.11294916175285,-0.611067130953239,1.23290585644144,-0.00870833132132499,-0.489375952641355,0.230834536246828,-0.298194253887962,-0.0461938076579197,0.784731011702646,-0.75486132651102,0.243097613650599,-0.336209598473536,0.164361943620745,0.0964604564246537,-0.0246468836826559,0.0183165375342241,-0.0625466005194832,-0.341322088413185,0.1749630353246,-0.391902934896731,0.0939100825268028,-0.100791963193169,0.0122282253659442,0.0408701940874767,0.00980292975923961,-0.0522811733284356,-0.0869066782728887,0.121565123658904,0.138688626873621,0.0395967732958604,0.102578193015946,-0.0810429019202459,-0.04057860191947,0.00819683062975538,0.0287442035989212,-0.045658414878782,0.00407880699595001,0.0153194528430379,0.0281490509635013,0.0631478447647715,0.0967911312937925,0.0134443470809435,-0.0408962834321827,0.0188529503576649
"nCompProb:3",-3.26518958073984,-2.78496794264732,-0.932359433086727,0.263709307480989,0.719817381027229,-0.871049995122164,-0.0298621669287909,-0.174095816503743,-0.439116639551324,-0.888291661522541,1.21119608660027,0.0487067097129346,-0.100721586166527,-0.213787956794099,-0.219465925178922,-0.105122335978102,-0.0394323052527619,-0.504362922216355,0.135534943333029,-0.13448299658389,0.0587991063271786,-0.130460972022629,0.0189077345526788,0.0500178989782507,0.047463542390723,-0.133703169077839,0.0321132580016125,0.0154093922566099,-0.0771520767577618,-0.0553695040267234,0.0513924569104835,0.0722863614274235,-0.0750088782286602,-0.088267481389111,0.0400962130456101,0.0858311352901576,0.00426228623696877,-0.02912657409911,0.0673335207148126,-0.039560930823797,-0.0980963484189287,-0.0328036725273573,0.0131423561693185,0.0426423308671384,-0.0877039148191339,-0.00208028430737778,-0.0035579554717696,-0.0106324397814286,0.0261407127062875,0.0454851816778784
"nCompProb:5",0.309671057836606,0.963403857734736,-2.89974568452049,0.742025429125671,3.86166903848086,0.450206914876378,0.619692445006155,0.255364536646805,-0.277476871653072,0.478700658784471,-1.7107672533683,-0.864520301321839,0.727831543769318,0.455341154816153,0.164325568948279,0.348991769960344,-0.18898347208786,1.06058022673911,-0.239910410632132,0.231094111383724,-0.0449144931904646,0.0737232704802634,-0.024640247584649,-0.187275316805981,-0.291956006563014,0.366045489706331,-0.136311022966048,0.0521816189760661,0.1134024014266,-0.0137619181746708,-0.0269440957762013,-0.11130314323846,0.06691976634519,0.142036506840717,0.0481530542197434,-0.146591578150603,-0.022510327638694,0.0155022355763378,-0.0736778985412811,0.0936226274559638,0.0313242140733863,0.151195369866553,0.0419303382449472,0.0501979106531253,0.0478660609446201,0.0131554829539468,-0.0254298585164158,-0.0172040821002023,-0.0370479990490232,0.0291234677068122
"nMutualProb:0",0.53790012220902,0.492387190882614,0.610577664051836,-0.18706083280381,-0.763085076205448,0.116614010352919,0.0280653728505478,0.00721766257902839,0.325299465182212,-0.0983927365657106,-0.363384742954327,-0.17395510044751,-0.00876615579848613,0.146918139213589,-0.0819025826653392,0.228800816312473,0.0224517511949359,-0.289875099409547,0.139576224591895,-0.0257393836510678,0.00876879091881358,-0.0713160501631804,-0.00171298192133846,0.0873461268385483,0.0520322839687179,-0.102164576417417,0.0531452687930241,-0.0254358672841617,-0.0325020356505612,-0.00415939337629995,0.037716540186822,-0.00150242531944097,0.00371739320716935,0.0594628908477686,-0.0147654965808316,-0.0682925576719821,-0.0169843501386842,-0.0043899096678266,0.0181622560870926,0.0386347775444548,0.0341525635169079,0.0172028608028478,0.0190080296037415,-0.00484197578790143,0.0359352349742435,0.00485456946290895,0.018613955353837,0.006876406015733,0.00221844717399126,-0.016810674429987
"nMutualProb:2",-1.61370036662699,-1.4771615726478,-1.8317329921555,0.561182498411431,2.28925522861635,-0.349842031058751,-0.0841961185516587,-0.0216529877370878,-0.975898395546633,0.295178209697129,1.09015422886298,0.521865301342525,0.0262984673954633,-0.440754417640762,0.245707747996019,-0.686402448937418,-0.067355253584808,0.869625298228639,-0.418728673775681,0.0772181509532027,-0.0263063727564411,0.213948150489542,0.00513894576401383,-0.262038380515645,-0.156096851906154,0.306493729252252,-0.159435806379072,0.0763076018524843,0.0975061069516828,0.0124781801288988,-0.113149620560465,0.00450727595832167,-0.0111521796215081,-0.178388672543304,0.0442964897424955,0.204877673015946,0.0509530504160533,0.0131697290034788,-0.054486768261278,-0.115904332633364,-0.102457690550724,-0.051608582408543,-0.0570240888112244,0.0145259273637046,-0.10780570492273,-0.0145637083887273,-0.055841866061512,-0.0206292180471992,-0.00665534152197328,0.0504320232899587
"nDefCondProb:0",-1.35416770558403,-1.20049070339183,-0.642690406628928,0.103859958835793,0.36228227594908,0.12268120276004,0.0587156654143128,0.0113859506882981,-0.0322247906482433,-0.0736232564839312,-0.0550291603763019,-0.0865489897003496,-0.0317529588419219,0.0446569155832544,-0.239678514237548,0.11708453363682,0.412329348338548,0.094275267770507,-0.126648076064513,0.0450806694322239,0.0184085275639315,0.0168978001830628,-0.00585241237746938,0.00733719628798728,-0.0327278621233124,0.0859919666493243,-0.0554413180877998,0.0106561634115278,-0.000796585476648212,-0.0150156860750196,0.0085403950774475,0.0298550881432287,0.00764617803594999,-0.0354206533458842,-0.0262355924854696,-0.00304604040283098,-0.014870131965593,0.0316154330727622,0.0278280764170043,-0.0157174311388613,-0.00999969795068196,-0.0265155616009707,-0.0209971442517538,-0.03911109772826,-0.00240330091213439,-0.0070529838333689,0.00689423685424502,0.00704742773133084,-0.00275358547991218,0.010082538521482
"nDefCondProb:1",5.81066082762303,5.76357938294041,3.80097985619307,0.00736847216612726,1.08833856736575,-5.96570815465587,-1.11294916175285,-0.611067130953239,1.23290585644144,-0.00870833132132499,-0.489375952641355,0.230834536246828,-0.298194253887962,-0.0461938076579197,0.784731011702646,-0.75486132651102,0.243097613650599,-0.336209598473536,0.164361943620745,0.0964604564246537,-0.0246468836826559,0.0183165375342241,-0.0625466005194832,-0.341322088413185,0.1749630353246,-0.391902934896731,0.0939100825268028,-0.100791963193169,0.0122282253659442,0.0408701940874767,0.00980292975923961,-0.0522811733284356,-0.0869066782728887,0.121565123658904,0.138688626873621,0.0395967732958604,0.102578193015946,-0.0810429019202459,-0.04057860191947,0.00819683062975538,0.0287442035989212,-0.045658414878782,0.00407880699595001,0.0153194528430379,0.0281490509635013,0.0631478447647715,0.0967911312937925,0.0134443470809435,-0.0408962834321827,0.0188529503576649
"nDefCondProb:2",2.71760165275127,2.05904998565882,0.68782343420368,-0.570784160472502,-2.50663042758518,2.98414031628954,0.291766587736594,0.279098400096485,-0.25219666421866,0.434665108731615,0.115708825522548,0.360177512321825,0.00299317198874178,0.171802533790528,1.09631294227447,-0.504388872943392,-1.6995207498508,-1.92172719176839,0.437327790820428,-0.0457886547844265,0.241595820468806,0.250485588477044,-0.0527861510670665,-0.775976157509026,-0.848046234790727,0.820547855969391,-0.141112520750348,-0.0456310615577949,0.543057359574143,0.276905338745291,-0.243041742053089,-0.506399127869048,0.0809967110202368,0.188408772171958,0.754235847391836,0.286808251247056,0.386668940333229,-0.489229835551597,-0.647219421595279,-0.0155288984284645,0.0767225817421998,0.298197008148216,0.0627433705435298,0.547674156640953,-0.177933581878537,0.168820272311117,-0.360381894275418,-0.138876770658885,0.0522323951572278,0.0490894545281621
"nDefCondProb:4",3.65924686988207,2.98178696192718,1.29541036926359,-0.371323941215766,-1.84224862332226,1.87743701352598,0.29274158528739,0.229495174662061,-0.690686076388604,0.236652530945083,0.868929570505518,0.187928858734491,0.580977711476527,-0.527520966381894,0.27606267416081,0.205489396723039,-2.25454099884673,1.40945938030736,0.538142950139452,-0.456397826530247,-0.382625684861534,-0.420882327658833,0.16800446298377,1.05126347933033,0.96763395857594,-1.20257262091658,0.546174301013745,0.0505175540472128,-0.548116315650255,-0.182634358157595,0.156375256596823,0.289984507908425,-0.0629056350708977,0.00881198428209695,-0.656804141896233,-0.298990660917437,-0.355415945658837,0.285733839816984,0.437345335761713,0.148788948048461,-0.0154695037849846,-0.0138985388606981,0.122152120726305,-0.210993729929652,0.171414239124244,-0.168491262575571,0.201542631293419,0.0620055739959635,0.0134461575941653,-0.15868525157917
"nCondIndeProb:0",-0.528241893420276,-0.523961762085479,-0.345543623290277,-0.000669861106011235,-0.0989398697605237,0.542337104968718,0.101177196522983,0.0555515573593856,-0.112082350585584,0.000791666483756249,0.0444887229673961,-0.0209849578406213,0.0271085685352695,0.0041994370598107,-0.0713391828820585,0.0686237569555476,-0.0220997830591447,0.0305645089521397,-0.0149419948746127,-0.00876913240224138,0.0022406257893322,-0.00166513977583837,0.00568605459267984,0.0310292807648351,-0.0159057304840547,0.0356275395360667,-0.00853728022970925,0.0091629057448334,-0.00111165685144952,-0.00371547218977085,-0.000891175432657855,0.0047528339389485,0.00790060711571711,-0.011051374878082,-0.0126080569885108,-0.00359970666325987,-0.0093252902741766,0.00736753653820399,0.0036889638108609,-0.0007451664208867,-0.00261310941808393,0.00415076498898005,-0.00037080063599539,-0.00139267753118528,-0.00255900463304554,-0.00574071316043375,-0.00879919375398116,-0.00122221337099493,0.00371784394838016,-0.00171390457796979
"nCondIndeProb:5",5.81066082762303,5.76357938294041,3.80097985619307,0.00736847216612726,1.08833856736575,-5.96570815465587,-1.11294916175285,-0.611067130953239,1.23290585644144,-0.00870833132132499,-0.489375952641355,0.230834536246828,-0.298194253887962,-0.0461938076579197,0.784731011702646,-0.75486132651102,0.243097613650599,-0.336209598473536,0.164361943620745,0.0964604564246537,-0.0246468836826559,0.0183165375342241,-0.0625466005194832,-0.341322088413185,0.1749630353246,-0.391902934896731,0.0939100825268028,-0.100791963193169,0.0122282253659442,0.0408701940874767,0.00980292975923961,-0.0522811733284356,-0.0869066782728887,0.121565123658904,0.138688626873621,0.0395967732958604,0.102578193015946,-0.0810429019202459,-0.04057860191947,0.00819683062975538,0.0287442035989212,-0.045658414878782,0.00407880699595001,0.0153194528430379,0.0281490509635013,0.0631478447647715,0.0967911312937925,0.0134443470809435,-0.0408962834321827,0.0188529503576649
"nTotTheoProb:0",-0.881152710824094,-0.651840918660134,-0.25999086218538,0.173260299175135,0.765690573386273,-0.850635922593828,-0.0904212143334597,-0.0727163866674091,0.0708806828751356,-0.0173554936781686,-0.0821705842531216,0.0357418228132751,-0.159518609440454,-0.0457799809281548,-0.267638648474073,0.180881583123978,0.160753150133881,0.0699236934133337,-0.0360110406558245,-0.00768733909518748,-0.0107334125421043,0.0134635439676737,0.0106763114841223,-0.0957262424013864,-0.0302883492396136,0.0899416539785801,-0.0801569671181424,-0.00226988880688796,0.0358337820702964,-0.0249580703236007,-0.0210435372208004,0.00334697061189706,-0.0196374393693025,-0.0229467313848908,0.0190248235344515,0.0157986062601098,-0.00514301913661431,0.031352696521754,0.0127232129336373,0.00571922277064566,-0.0250324931948434,0.0181449824491967,0.0178270618731376,0.00995866414827391,-0.0100841147071745,-0.0133097935855096,0.0595615222338052,0.00745473250539113,-0.0231456961779458,0.00982454408495762
"nTotTheoProb:1",2.64345813247231,1.95552275598043,0.77997258655615,-0.519780897525406,-2.29707172015882,2.5519077677815,0.271263643000375,0.218149160002226,-0.212642048625404,0.0520664810345062,0.246511752759362,-0.107225468439829,0.478555828321362,0.137339942784467,0.802915945422224,-0.542644749371933,-0.482259450401644,-0.209771080240003,0.108033121967472,0.0230620172855633,0.0322002376263129,-0.0403906319030204,-0.0320289344523661,0.287178727204158,0.090865047718841,-0.269824961935741,0.240470901354426,0.00680966642066315,-0.10750134621089,0.0748742109708012,0.0631306116624011,-0.010040911835691,0.0589123181079073,0.0688401941546722,-0.0570744706033541,-0.0473958187803307,0.0154290574098409,-0.0940580895652621,-0.0381696388009127,-0.0171576683119374,0.0750974795845311,-0.0544349473475885,-0.0534811856194126,-0.0298759924448211,0.0302523441215239,0.0399293807565284,-0.178684566701416,-0.0223641975161728,0.069437088533838,-0.029473632254873
"nBayesProb:0",-0.955485611039355,-0.853369882200858,-0.584423160780352,0.0580540111523179,0.125890487071645,0.515340048174184,0.10801172258975,0.0661157699909647,-0.0997575645635841,0.0435402221805094,-0.0320549801336297,0.00741146391599103,0.126085816448778,0.0111740610069756,0.125509766882748,-0.150863710524648,-0.18539536034168,-0.0362491245091171,0.0331395928579521,-0.00829823462807521,0.00210808954788563,-0.0412213768118331,0.00989954022843313,0.0646892937328029,0.0269765146594589,-0.0669256490788586,0.0617112397489691,0.0220378032277406,-0.0279894284030969,0.0131091731040858,0.0181985480597825,-0.00230628045117089,0.0112295756359588,0.0228222819192801,-0.0164770997048625,-0.0223161691607445,0.000439300976722582,-0.0238309620763896,-0.00577420109791531,0.0069714141950689,0.0102258211796509,-0.009490017726962,-0.0093737420375123,0.00398460788409218,0.00399715021319826,0.0126763877042077,-0.0480824978196621,-0.00986951755842578,0.0222797113941944,-0.00185225490688675
"nBayesProb:1",4.77742805519676,4.2668494110043,2.92211580390175,-0.290270055761589,-0.629452435358219,-2.57670024087093,-0.540058612948746,-0.330578849954822,0.498787822817923,-0.217701110902547,0.160274900668149,-0.0370573195799546,-0.630429082243889,-0.0558703050348783,-0.627548834413738,0.754318552623237,0.926976801708397,0.181245622545586,-0.165697964289759,0.0414911731403757,-0.0105404477394289,0.206106884059165,-0.0494977011421648,-0.323446468664013,-0.134882573297294,0.334628245394292,-0.308556198744844,-0.110189016138702,0.139947142015484,-0.0655458655204279,-0.0909927402989119,0.0115314022558545,-0.056147878179794,-0.114111409596399,0.0823854985243121,0.111580845803722,-0.00219650488361194,0.119154810381948,0.0288710054895772,-0.0348570709753438,-0.0511291058982543,0.0474500886348091,0.0468687101875618,-0.0199230394204615,-0.019985751065991,-0.0633819385210384,0.240412489098311,0.0493475877921294,-0.111398556970973,0.00926127453443332
